%YAML:1.0
---
opencv_ml_svm:
   format: 3
   svmType: C_SVC
   kernel:
      type: RBF
      gamma: 5.0000000000000000e-01
   C: 1.2500000000000000e+01
   term_criteria: { epsilon:1.1920928955078125e-07, iterations:1000 }
   var_count: 144
   class_count: 13
   class_labels: !!opencv-matrix
      rows: 13
      cols: 1
      dt: i
      data: [ 1, 2, 3, 4, 5, 6, 7, 8, 9, 10, 11, 12, 13 ]
   sv_total: 123
   support_vectors:
      - [ 2.08085194e-01, 4.33982462e-01, 4.33982462e-01, 9.58822370e-02,
          1.45106658e-01, 4.33982462e-01, 4.33982462e-01, 4.10627753e-01,
          1.17400847e-02, 3.28554288e-02, 1.84709877e-01, 1.78162575e-01,
          5.25189228e-02, 5.56454837e-01, 1.50272876e-01, 5.56454837e-01,
          5.31864107e-01, 7.37401191e-04, 0., 0., 1.11045271e-01,
          5.81427097e-01, 5.81427097e-01, 5.42255342e-01, 1.08200282e-01,
          0., 0., 0., 0., 1.36693478e-01, 5.73317409e-01, 6.52416646e-01,
          4.45346802e-01, 1.48752376e-01, 0., 0., 2.59398401e-01,
          4.34531063e-01, 4.34531063e-01, 1.90445669e-02, 3.52884412e-01,
          4.34531063e-01, 4.34531063e-01, 2.12740168e-01, 5.43561466e-02,
          0., 1.79816931e-02, 3.57206464e-02, 0., 8.25889222e-03,
          6.29457355e-01, 6.29457355e-01, 4.46782619e-01, 0., 0., 0., 0.,
          0., 0., 0., 0., 0., 0., 0., 0., 0., 0., 0., 0., 0., 0., 0.,
          2.79638946e-01, 2.02216581e-01, 1.22852877e-01, 1.16991989e-01,
          5.24722397e-01, 5.24722397e-01, 5.24722397e-01, 1.08901903e-01,
          9.50257853e-02, 0., 0., 0., 0., 4.88209277e-02, 6.92577183e-01,
          6.92577183e-01, 1.77134484e-01, 0., 0., 0., 0., 0., 0., 0., 0.,
          0., 0., 0., 0., 0., 0., 0., 0., 0., 0., 0., 0., 0., 0., 0., 0.,
          0., 0., 0., 0., 0., 0., 0., 0., 0., 0., 0., 0., 0., 0., 0., 0.,
          0., 0., 0., 0., 0., 0., 0., 0., 0., 0., 0., 0., 0., 0., 0. ]
      - [ 4.01690573e-01, 2.41489649e-01, 2.30630338e-01, 3.03819281e-04,
          2.78752238e-01, 4.01690573e-01, 4.01690573e-01, 4.01690573e-01,
          4.01690573e-01, 4.88828957e-01, 1.11109745e-02, 0., 0.,
          4.88828957e-01, 1.22232348e-01, 4.88828957e-01, 1.55686989e-01,
          4.88828957e-01, 5.69149077e-01, 1.13964446e-01, 0.,
          4.43734135e-03, 5.69149077e-01, 1.17976423e-02, 5.03024179e-03,
          9.67083052e-02, 5.69149077e-01, 5.72288752e-01, 7.93325007e-02,
          0., 1.39042605e-02, 5.72288752e-01, 9.77752358e-03,
          2.13639997e-03, 7.17975795e-02, 5.72288752e-01, 4.24551917e-03,
          5.58594540e-02, 3.25491279e-01, 2.17953771e-01, 4.88773286e-01,
          5.10577619e-01, 5.10577619e-01, 2.79341757e-01, 1.97285879e-03,
          0., 0., 0., 0., 6.68943822e-02, 6.40402377e-01, 6.40402377e-01,
          4.10975903e-01, 0., 0., 0., 0., 0., 0., 0., 0., 0., 0., 0., 0.,
          0., 0., 0., 0., 0., 0., 0., 0., 1.13267608e-01, 4.25743431e-01,
          3.90491664e-01, 4.25743431e-01, 4.25743431e-01, 4.25743431e-01,
          3.24659556e-01, 0., 0., 0., 0., 0., 0., 0., 0., 0., 0., 0., 0.,
          0., 0., 0., 0., 0., 0., 0., 0., 0., 0., 0., 0., 0., 0., 0., 0.,
          0., 0., 0., 0., 0., 0., 0., 0., 0., 0., 0., 0., 0., 0., 0., 0.,
          0., 0., 0., 0., 0., 0., 0., 0., 0., 0., 0., 0., 0., 0., 0., 0.,
          0., 0., 0., 0. ]
      - [ 0., 0., 0., 0., 0., 0., 0., 0., 0., 0., 0., 0., 0., 0., 0., 0.,
          0., 0., 1.49574026e-01, 6.51570022e-01, 6.51570022e-01, 0.,
          2.05090679e-02, 1.60434544e-01, 3.08782279e-01, 2.30035093e-02,
          0., 2.45717183e-01, 4.72257107e-01, 4.72257107e-01,
          2.05046609e-02, 1.15328602e-01, 4.72257107e-01, 4.72257107e-01,
          1.70351893e-01, 7.61850039e-03, 5.29128194e-01, 0.,
          1.81362834e-02, 6.80554807e-02, 5.29128194e-01, 3.49270999e-01,
          1.66823238e-01, 2.29959330e-03, 5.29128194e-01, 5.32441080e-01,
          0., 6.37214333e-02, 2.30084956e-01, 5.32441080e-01,
          2.80524105e-01, 9.22368467e-02, 1.14996161e-03, 5.32441080e-01,
          4.53828573e-01, 1.60206333e-01, 3.96426171e-01, 3.28095824e-01,
          4.53828573e-01, 2.46606112e-01, 1.55371174e-01, 4.65226844e-02,
          4.53828573e-01, 3.63939881e-01, 3.63939881e-01, 3.63939881e-01,
          1.44646749e-01, 3.63939881e-01, 3.63939881e-01, 3.63939881e-01,
          2.19716713e-01, 3.63939881e-01, 4.57832903e-01, 0.,
          2.99841892e-02, 8.15154091e-02, 5.22591054e-01, 4.70463514e-01,
          2.28504345e-01, 2.25967006e-03, 4.80592877e-01, 4.79786158e-01,
          0., 1.18265897e-01, 3.16561460e-01, 4.79786158e-01,
          4.09571946e-01, 1.50585026e-01, 7.68638216e-04, 4.79786158e-01,
          4.56476301e-01, 2.06969250e-02, 2.27729410e-01, 4.56476301e-01,
          4.56476301e-01, 3.21821749e-01, 1.23841517e-01, 8.66662711e-03,
          4.46159720e-01, 3.32667023e-01, 9.53711644e-02, 2.30061352e-01,
          3.52024496e-01, 5.10104597e-01, 5.10104597e-01, 2.63895154e-01,
          6.89155161e-02, 3.21697921e-01, 0., 0., 0., 0., 0., 0., 0., 0.,
          0., 0., 0., 0., 0., 0., 0., 0., 0., 0., 0., 0., 0., 0., 0., 0.,
          0., 0., 0., 0., 0., 0., 0., 0., 0., 0., 0., 0. ]
      - [ 0., 0., 0., 0., 0., 0., 0., 0., 0., 0., 0., 0., 0., 0., 0., 0.,
          0., 0., 1.49574026e-01, 6.51570022e-01, 6.51570022e-01, 0.,
          2.05090679e-02, 1.60434544e-01, 3.08782279e-01, 2.30035093e-02,
          0., 2.45717183e-01, 4.72257107e-01, 4.72257107e-01,
          2.05046609e-02, 1.15328602e-01, 4.72257107e-01, 4.72257107e-01,
          1.70351893e-01, 7.61850039e-03, 5.75688422e-01, 0., 0., 0.,
          5.75688422e-01, 0., 0., 0., 5.75688422e-01, 5.75688422e-01, 0.,
          0., 0., 5.75688422e-01, 0., 0., 0., 5.75688422e-01,
          5.48410594e-01, 1.44902602e-01, 2.46937931e-01, 0.,
          5.48410594e-01, 2.77743228e-02, 8.75040293e-02, 4.30998504e-02,
          5.48410594e-01, 3.68330359e-01, 3.68330359e-01, 3.68330359e-01,
          4.59865294e-03, 3.68330359e-01, 3.68330359e-01, 3.68330359e-01,
          2.15935767e-01, 3.68330359e-01, 4.92533356e-01, 0., 0., 0.,
          7.12619245e-01, 0., 0., 0., 4.92413759e-01, 4.92471308e-01, 0.,
          0., 0., 7.12631166e-01, 0., 0., 0., 4.92458403e-01,
          4.90028739e-01, 1.25116371e-02, 1.23815157e-03, 0.,
          7.23905444e-01, 0., 9.12299263e-04, 5.99508127e-03,
          4.77924764e-01, 3.58207285e-01, 8.19280595e-02, 2.92451736e-02,
          2.67051230e-03, 6.23900831e-01, 5.41507125e-01, 2.22526193e-01,
          6.36831000e-02, 3.49038661e-01, 0., 0., 0., 0., 0., 0., 0., 0.,
          0., 0., 0., 0., 0., 0., 0., 0., 0., 0., 0., 0., 0., 0., 0., 0.,
          0., 0., 0., 0., 0., 0., 0., 0., 0., 0., 0., 0. ]
      - [ 0., 0., 0., 0., 9.95024860e-01, 0., 0., 0., 0., 7.17495829e-02,
          4.63496536e-01, 5.69356859e-01, 2.74542034e-01, 5.69356859e-01,
          9.10254137e-04, 6.06101081e-02, 1.46564275e-01, 1.59606278e-01,
          3.90322000e-01, 2.16427892e-01, 3.90322000e-01, 3.90322000e-01,
          3.90322000e-01, 1.30391970e-01, 1.34721935e-01, 3.90322000e-01,
          3.90322000e-01, 4.32023287e-01, 4.32023287e-01, 4.20786068e-02,
          7.79622719e-02, 4.32023287e-01, 4.32023287e-01, 2.19299063e-01,
          8.07647780e-02, 4.32023287e-01, 0., 0., 0., 0., 0., 0., 0., 0.,
          0., 1.22988289e-02, 2.23834798e-01, 5.60949743e-01,
          5.60949743e-01, 5.60949743e-01, 0., 0., 0., 1.22988289e-02,
          1.17893271e-01, 2.42533032e-02, 5.19770443e-01, 5.76168358e-01,
          5.76168358e-01, 1.32391214e-01, 3.37155499e-02, 3.52526866e-02,
          1.60472423e-01, 1.86715543e-01, 3.69313173e-02, 7.05661923e-02,
          2.22247720e-01, 6.05874956e-01, 6.05874956e-01, 3.84405553e-01,
          2.72792894e-02, 1.43768504e-01, 0., 0., 0., 0., 0., 0., 0., 0.,
          0., 0., 0., 0., 0., 0., 0., 0., 0., 0., 0., 0., 0., 0., 0., 0.,
          0., 0., 0., 0., 0., 0., 0., 0., 0., 0., 0., 0., 0., 0., 0., 0.,
          0., 0., 0., 0., 0., 0., 0., 0., 0., 0., 0., 0., 0., 0., 0., 0.,
          0., 0., 0., 0., 0., 0., 0., 0., 0., 0., 0., 0., 0., 0., 0., 0. ]
      - [ 1.46559194e-01, 3.01160216e-01, 2.08237737e-01, 2.45717391e-02,
          1.47023559e-01, 3.37946445e-01, 5.81940889e-01, 5.81940889e-01,
          1.57832921e-01, 4.25984144e-01, 2.06832066e-01, 1.72022209e-01,
          5.43980934e-02, 4.25984144e-01, 1.14462890e-01, 4.25984144e-01,
          4.25984144e-01, 4.25984144e-01, 4.06522602e-01, 4.06522602e-01,
          4.06522602e-01, 2.13866457e-02, 4.06522602e-01, 4.06522602e-01,
          4.06522602e-01, 2.46652942e-02, 5.75268716e-02, 1.04661375e-01,
          4.76226807e-01, 2.74330467e-01, 2.35254951e-02, 4.76226807e-01,
          4.76226807e-01, 4.76226807e-01, 3.61758769e-02, 1.44321332e-03,
          5.09564131e-02, 1.06304511e-01, 4.34773147e-01, 3.42245400e-01,
          4.36407894e-01, 4.36407894e-01, 4.36407894e-01, 2.68104166e-01,
          1.79856464e-01, 3.93227071e-01, 1.50595665e-01, 3.93227071e-01,
          3.93227071e-01, 3.93227071e-01, 1.91493973e-01, 1.67067260e-01,
          3.68338764e-01, 3.93227071e-01, 4.10687417e-01, 4.10687417e-01,
          2.15960577e-01, 1.29800597e-02, 4.10687417e-01, 4.10687417e-01,
          4.10687417e-01, 1.18237354e-01, 3.02967399e-01, 1.08579092e-01,
          2.44657859e-01, 1.68900058e-01, 4.64927126e-03, 5.42479157e-01,
          5.42479157e-01, 5.42479157e-01, 1.07394993e-01, 1.50708354e-03,
          0., 8.33007321e-03, 1.43763408e-01, 2.71720141e-01,
          5.46797216e-01, 5.46797216e-01, 5.46797216e-01, 5.48512861e-02,
          0., 8.76701027e-02, 1.71597283e-02, 2.83688724e-01,
          6.45304978e-01, 6.45304978e-01, 2.43315220e-01, 8.68244693e-02,
          8.92533921e-03, 7.37573802e-02, 4.38173302e-02, 0.,
          4.05271305e-03, 3.37462649e-02, 5.83397925e-01, 5.83397925e-01,
          5.49563825e-01, 6.49052188e-02, 6.44989684e-02, 0., 0., 0., 0.,
          4.82984602e-01, 5.78917205e-01, 5.78917205e-01, 3.01089406e-01,
          0., 0., 0., 0., 0., 0., 0., 0., 0., 0., 0., 0., 0., 0., 0., 0.,
          0., 0., 0., 0., 0., 0., 0., 0., 0., 0., 0., 0., 0., 0., 0., 0.,
          0., 0., 0., 0., 0. ]
      - [ 0., 0., 0., 0., 9.95024860e-01, 0., 0., 0., 0., 8.04560333e-02,
          5.09873986e-01, 5.09873986e-01, 4.27822769e-01, 5.09873986e-01,
          2.43039317e-02, 1.21158525e-01, 9.71480608e-02, 2.79263686e-02,
          3.40303481e-01, 3.29953879e-01, 3.40303481e-01, 2.77642190e-01,
          3.40303481e-01, 3.40303481e-01, 3.40303481e-01, 3.40303481e-01,
          3.40303481e-01, 4.25599247e-01, 4.25599247e-01, 4.65492234e-02,
          3.28663103e-02, 4.25599247e-01, 4.25599247e-01, 3.20166528e-01,
          5.42386658e-02, 4.03130472e-01, 0., 0., 0., 0., 0., 0., 0., 0.,
          0., 1.22676173e-03, 2.29735523e-01, 5.60122669e-01,
          5.60122669e-01, 5.60122669e-01, 0., 3.05549265e-03,
          1.21249538e-02, 1.60728320e-02, 1.91588953e-01, 5.96880317e-02,
          2.99973279e-01, 5.40747523e-01, 6.84085786e-01, 4.63388264e-02,
          2.73367763e-02, 1.24216810e-01, 2.90193528e-01, 2.87246138e-01,
          1.20577373e-01, 6.03889860e-03, 5.24933857e-04, 5.55202842e-01,
          5.55202842e-01, 4.92197990e-01, 3.64540480e-02, 1.93084598e-01,
          0., 0., 0., 0., 0., 0., 0., 0., 0., 0., 0., 0., 0., 0., 0., 0.,
          0., 0., 0., 0., 0., 0., 0., 0., 0., 0., 0., 0., 0., 0., 0., 0.,
          0., 0., 0., 0., 0., 0., 0., 0., 0., 0., 0., 0., 0., 0., 0., 0.,
          0., 0., 0., 0., 0., 0., 0., 0., 0., 0., 0., 0., 0., 0., 0., 0.,
          0., 0., 0., 0., 0., 0., 0., 0. ]
      - [ 7.74757564e-02, 2.43194997e-01, 9.77957025e-02, 3.67347529e-05,
          1.54155746e-01, 5.44645846e-01, 5.44645846e-01, 5.44645846e-01,
          7.85457864e-02, 0., 0., 0., 1.20879535e-03, 5.30155838e-01,
          3.86712044e-01, 5.30155838e-01, 5.30155838e-01, 4.42970395e-02,
          0., 0., 0., 3.33090406e-03, 9.95014191e-01, 3.20775015e-03, 0.,
          0., 0., 0., 3.85416392e-03, 5.73244393e-02, 2.65975863e-01,
          9.53659832e-01, 8.35160762e-02, 1.23162434e-04, 0., 0.,
          6.97753858e-04, 1.47337010e-02, 7.78077543e-02, 3.35525386e-02,
          5.02696753e-01, 5.91886580e-01, 5.91886580e-01, 1.82561859e-01,
          4.64609417e-04, 0., 0., 0., 0., 2.27177087e-02, 6.26675367e-01,
          6.26675367e-01, 4.55832303e-01, 0., 0., 0., 0., 0., 0., 0., 0.,
          0., 0., 0., 0., 0., 0., 0., 0., 0., 0., 0., 0., 2.62089390e-02,
          1.35834128e-01, 1.00222036e-01, 5.66144228e-01, 5.66144228e-01,
          5.66144228e-01, 6.00539669e-02, 0., 0., 0., 0., 0.,
          9.09785479e-02, 6.84306562e-01, 6.84306562e-01, 2.19864815e-01,
          0., 0., 0., 0., 0., 0., 0., 0., 0., 0., 0., 0., 0., 0., 0., 0.,
          0., 0., 0., 0., 0., 0., 0., 0., 0., 0., 0., 0., 0., 0., 0., 0.,
          0., 0., 0., 0., 0., 0., 0., 0., 0., 0., 0., 0., 0., 0., 0., 0.,
          0., 0., 0., 0., 0., 0., 0. ]
      - [ 4.08557087e-01, 3.64102840e-01, 4.08557087e-01, 3.15613657e-01,
          4.08557087e-01, 2.50329018e-01, 1.43707424e-01, 1.12888485e-01,
          4.08557087e-01, 3.80265802e-01, 3.42215598e-01, 3.80265802e-01,
          2.04513788e-01, 3.80265802e-01, 3.80265802e-01, 2.46428892e-01,
          2.31357098e-01, 3.80265802e-01, 4.06754255e-01, 4.76071388e-02,
          1.68384816e-02, 2.63131484e-02, 4.06754255e-01, 4.06754255e-01,
          4.06754255e-01, 4.06754255e-01, 4.06754255e-01, 3.05460155e-01,
          4.77623075e-01, 4.77623075e-01, 4.30808105e-02, 2.16613576e-01,
          3.49720240e-01, 4.77623075e-01, 1.64123371e-01, 1.39763802e-01,
          4.06929255e-01, 4.06929255e-01, 4.06929255e-01, 4.06929255e-01,
          4.06929255e-01, 2.85888404e-01, 6.36662394e-02, 1.35490242e-02,
          2.86371440e-01, 4.02965158e-01, 2.85347164e-01, 2.18515128e-01,
          1.89517960e-01, 4.02965158e-01, 4.02965158e-01, 4.02965158e-01,
          2.31672332e-01, 3.57337028e-01, 4.12354916e-01, 2.33187273e-01,
          2.14585915e-01, 1.23667479e-01, 4.12354916e-01, 3.99667859e-01,
          4.12354916e-01, 2.00706542e-01, 4.12354916e-01, 3.19150329e-01,
          4.42777395e-01, 4.42777395e-01, 8.01599249e-02, 2.00897127e-01,
          4.42777395e-01, 4.42777395e-01, 2.30564579e-01, 9.78148207e-02,
          3.89995992e-01, 3.43350112e-01, 1.73318982e-01, 1.32062331e-01,
          3.89995992e-01, 3.89995992e-01, 3.89995992e-01, 2.65047640e-01,
          3.89995992e-01, 4.29699093e-01, 1.61724091e-02, 5.37325107e-02,
          7.02571869e-02, 4.29699093e-01, 4.29699093e-01, 4.29699093e-01,
          2.53803670e-01, 4.29699093e-01, 4.44982916e-01, 4.44982916e-01,
          4.44982916e-01, 0., 4.44982916e-01, 3.69912088e-02,
          6.34778962e-02, 1.04123382e-02, 4.44982916e-01, 2.56315351e-01,
          4.53900963e-01, 4.53900963e-01, 0., 3.01997904e-02,
          4.53900963e-01, 4.53900963e-01, 3.20798367e-01, 4.29016873e-02,
          4.31037396e-01, 1.10682338e-01, 8.41633603e-02, 1.49526864e-01,
          4.31037396e-01, 4.31037396e-01, 4.31037396e-01, 1.58226684e-01,
          4.31037396e-01, 5.67345321e-01, 2.02178769e-02, 1.22517138e-03,
          1.29478413e-03, 5.67345321e-01, 1.39086813e-01, 8.73755366e-02,
          3.60683724e-02, 5.67345321e-01, 4.32517856e-01, 4.32517856e-01,
          4.32517856e-01, 2.08173562e-02, 4.32517856e-01, 1.01492830e-01,
          2.14298174e-01, 6.05234019e-02, 4.32517856e-01, 1.62649065e-01,
          4.12290156e-01, 4.12290156e-01, 1.46971764e-02, 4.12290156e-01,
          4.12290156e-01, 4.12290156e-01, 3.42791796e-01, 4.22907323e-02 ]
      - [ 3.81870925e-01, 3.81870925e-01, 3.04753810e-01, 5.39260171e-02,
          3.81870925e-01, 3.81870925e-01, 3.81870925e-01, 1.78519666e-01,
          3.73370647e-01, 4.37537760e-01, 1.61824882e-01, 1.24732396e-02,
          4.93184524e-03, 4.37537760e-01, 2.10969627e-01, 4.37537760e-01,
          3.98743987e-01, 4.37537760e-01, 5.75688422e-01, 0., 0., 0.,
          5.75688422e-01, 0., 0., 0., 5.75688422e-01, 4.45143133e-01,
          4.45143133e-01, 4.45143133e-01, 6.92202523e-02, 4.45143133e-01,
          0., 0., 0., 4.45143133e-01, 4.05528516e-01, 4.05528516e-01,
          4.05528516e-01, 4.05528516e-01, 4.05528516e-01, 3.81465584e-01,
          1.32498637e-01, 4.19583656e-02, 9.40724909e-02, 4.04389203e-01,
          2.85071760e-01, 4.43256572e-02, 5.75618893e-02, 4.04389203e-01,
          4.04389203e-01, 4.04389203e-01, 3.02924037e-01, 4.04389203e-01,
          5.47952354e-01, 8.22609384e-03, 0., 0., 5.47952354e-01,
          9.36392471e-02, 2.80571908e-01, 7.88433626e-02, 5.47952354e-01,
          4.45493907e-01, 4.45493907e-01, 4.45493907e-01, 5.67981564e-02,
          4.45493907e-01, 0., 0., 0., 4.45493907e-01, 3.95067066e-01,
          3.95067066e-01, 3.95067066e-01, 3.95067066e-01, 3.95067066e-01,
          4.77657318e-02, 1.65247500e-01, 1.73196614e-01, 3.95067066e-01,
          3.73587608e-01, 3.73587608e-01, 3.38000566e-01, 1.65070608e-01,
          3.73587608e-01, 3.73587608e-01, 3.73587608e-01, 1.31790221e-01,
          3.73587608e-01, 4.35543060e-01, 6.46512304e-03, 0., 0.,
          4.35543060e-01, 4.35543060e-01, 4.35543060e-01, 2.17068598e-01,
          4.35543060e-01, 3.19899738e-01, 5.13059497e-01, 5.13059497e-01,
          8.12742114e-02, 5.13059497e-01, 0., 0., 0., 3.10232878e-01,
          4.00193453e-01, 2.18209893e-01, 2.08139777e-01, 3.50776762e-01,
          4.00193453e-01, 1.80960700e-01, 4.00193453e-01, 3.29626918e-01,
          4.00193453e-01, 4.54842299e-01, 1.60792470e-02, 5.36016151e-02,
          7.12231621e-02, 4.54842299e-01, 3.60021323e-01, 3.74027461e-01,
          3.11602443e-01, 4.54842299e-01, 5.72586954e-01, 0., 0., 0.,
          5.72586954e-01, 1.02610737e-01, 1.36245098e-02, 6.27258269e-04,
          5.72586954e-01, 4.45513695e-01, 4.45513695e-01, 4.45513695e-01,
          5.60148098e-02, 4.45513695e-01, 0., 0., 0., 4.45513695e-01 ]
      - [ 5.10036349e-01, 4.92054969e-04, 3.33421268e-02, 4.45482850e-01,
          5.10036349e-01, 2.75735818e-02, 8.41402709e-02, 8.41920450e-02,
          5.10036349e-01, 5.69286287e-01, 1.79134903e-03, 2.33693188e-03,
          3.53256427e-02, 5.69286287e-01, 6.37679547e-02, 6.00765310e-02,
          1.14554361e-01, 5.69286287e-01, 4.27587360e-01, 3.64805192e-01,
          4.27587360e-01, 6.52657226e-02, 4.27587360e-01, 3.56308341e-01,
          5.77992701e-04, 1.03150085e-02, 4.27587360e-01, 4.27111268e-01,
          4.41942990e-01, 4.41942990e-01, 2.70689949e-02, 4.41942990e-01,
          4.41942990e-01, 8.55735615e-02, 5.41296462e-03, 1.54344261e-01,
          4.78848040e-01, 1.73619809e-03, 1.01501524e-01, 4.78848040e-01,
          4.78848040e-01, 4.01875526e-02, 1.37147799e-01, 2.17497706e-01,
          4.78848040e-01, 4.41100359e-01, 1.07955784e-02, 8.98583233e-02,
          4.41100359e-01, 4.41100359e-01, 5.61719537e-02, 1.06769770e-01,
          4.41100359e-01, 4.41100359e-01, 4.71717209e-01, 2.45351195e-01,
          3.67500447e-02, 1.55427933e-01, 4.71717209e-01, 4.71717209e-01,
          5.71048707e-02, 1.27488598e-01, 4.71717209e-01, 4.15005177e-01,
          2.53684580e-01, 1.05330698e-01, 1.18629131e-02, 4.15005177e-01,
          4.15005177e-01, 3.77702057e-01, 2.97803760e-01, 4.15005177e-01,
          3.21472287e-02, 5.68482978e-03, 1.84238419e-01, 6.87492788e-01,
          6.87492788e-01, 5.19495830e-02, 4.11108062e-02, 3.47167142e-02,
          8.50921199e-02, 2.53888786e-01, 2.29534451e-02, 1.47685200e-01,
          5.35154760e-01, 5.35154760e-01, 2.65416615e-02, 1.02290763e-02,
          2.18809262e-01, 5.35154760e-01, 4.76640224e-01, 1.34202302e-01,
          2.79487111e-02, 2.42348969e-01, 4.76640224e-01, 4.76640224e-01,
          6.36126176e-02, 7.01753050e-02, 4.76640224e-01, 4.37783539e-01,
          2.03476161e-01, 1.49575546e-02, 0., 4.49258089e-01,
          4.49258089e-01, 4.49258089e-01, 3.03622544e-01, 2.54060417e-01,
          0., 0., 0., 0., 0., 0., 0., 0., 0., 0., 0., 0., 0., 0., 0., 0.,
          0., 0., 0., 0., 0., 0., 0., 0., 0., 0., 0., 0., 0., 0., 0., 0.,
          0., 0., 0., 0. ]
      - [ 6.90715853e-04, 4.83684272e-01, 4.83684272e-01, 1.01702653e-01,
          4.83684272e-01, 1.67194650e-01, 4.83684272e-01, 1.44979894e-01,
          7.06443051e-03, 2.37480953e-01, 1.09255120e-01, 3.44229102e-01,
          1.06154550e-02, 4.85454619e-01, 1.10907428e-01, 4.85454619e-01,
          4.85454619e-01, 2.98181176e-01, 2.49730930e-01, 4.71083015e-01,
          4.71083015e-01, 1.05191052e-01, 4.71083015e-01, 0.,
          4.36195374e-01, 1.61590755e-01, 1.99319810e-01, 2.75413007e-01,
          1.29417151e-01, 3.64543021e-01, 1.20322816e-02, 4.14610701e-03,
          0., 5.71836174e-01, 5.71836174e-01, 3.38588327e-01,
          7.59301241e-03, 5.63645065e-01, 5.63645065e-01, 1.32311061e-01,
          5.63645065e-01, 0., 1.20604679e-01, 8.71573836e-02,
          3.97286564e-02, 4.48208570e-01, 9.03213024e-02, 2.79851556e-01,
          1.98592264e-02, 4.48208570e-01, 0., 4.19104308e-01,
          3.61016095e-01, 4.48208570e-01, 4.54729885e-01, 3.92150432e-01,
          4.54729885e-01, 0., 4.54729885e-01, 0., 9.77956653e-02,
          7.06740022e-02, 4.54729885e-01, 4.69062716e-01, 5.10586202e-02,
          7.16329589e-02, 0., 4.69062716e-01, 0., 4.33602601e-01,
          3.73504937e-01, 4.69062716e-01, 2.87279545e-04, 3.16739380e-01,
          6.14932060e-01, 3.70477051e-01, 6.14932060e-01, 0., 0., 0.,
          2.87279545e-04, 5.83796808e-03, 2.52429508e-02, 9.48641226e-02,
          4.27574329e-02, 9.89241719e-01, 0., 0., 0., 5.83796808e-03,
          5.41572180e-03, 0., 0., 0., 9.94995534e-01, 0., 0., 0.,
          5.41572180e-03, 5.86490752e-03, 0., 0., 0., 9.94990468e-01, 0.,
          0., 0., 5.86490752e-03, 0., 0., 0., 0., 0., 0., 0., 0., 0., 0.,
          0., 0., 0., 0., 0., 0., 0., 0., 0., 0., 0., 0., 0., 0., 0., 0.,
          0., 0., 0., 0., 0., 0., 0., 0., 0., 0. ]
      - [ 3.95128667e-01, 1.99810252e-01, 3.95128667e-01, 1.05362393e-01,
          3.95128667e-01, 3.95128667e-01, 3.95128667e-01, 9.09242779e-02,
          3.95128667e-01, 5.49434781e-01, 1.15789694e-03, 2.76301685e-03,
          0., 5.49434781e-01, 2.45368525e-01, 1.66681066e-01,
          2.96696667e-02, 5.49434781e-01, 5.75688362e-01, 5.63499125e-05,
          1.69049730e-04, 0., 5.75688362e-01, 0., 1.37022304e-04,
          4.56741036e-05, 5.75688362e-01, 4.49674219e-01, 4.22173142e-01,
          4.49674219e-01, 9.19264778e-02, 4.49674219e-01, 0.,
          1.49207117e-04, 4.97357032e-05, 4.49674219e-01, 4.23320144e-01,
          1.39033943e-01, 2.14636952e-01, 8.85144770e-02, 4.23320144e-01,
          4.23320144e-01, 4.23320144e-01, 1.62902430e-01, 4.23320144e-01,
          4.66925710e-01, 2.86118686e-01, 3.35182875e-01, 2.35880747e-01,
          4.66925710e-01, 2.12038696e-01, 1.61168650e-01, 1.43144339e-01,
          4.66925710e-01, 4.43922102e-01, 3.60165387e-01, 1.72613874e-01,
          8.28721821e-02, 4.43922102e-01, 2.90874511e-01, 2.27286816e-01,
          3.18928599e-01, 4.43922102e-01, 4.15764004e-01, 4.15764004e-01,
          4.15764004e-01, 3.69731039e-02, 4.15764004e-01, 1.04719318e-01,
          2.59653389e-01, 2.27585420e-01, 4.15764004e-01, 4.23926204e-01,
          4.23926204e-01, 4.23926204e-01, 4.23926204e-01, 4.23926204e-01,
          0., 0., 0., 3.11766297e-01, 3.80158812e-01, 3.80158812e-01,
          3.80158812e-01, 3.80158812e-01, 3.80158812e-01, 3.80158812e-01,
          1.82687685e-01, 3.25571075e-02, 3.07641029e-01, 4.00741488e-01,
          2.67838985e-01, 2.50643343e-01, 1.90050006e-01, 4.00741488e-01,
          4.00741488e-01, 4.00741488e-01, 1.49496168e-01, 4.00741488e-01,
          4.49780613e-01, 3.22652966e-01, 4.49780613e-01, 8.39712694e-02,
          4.49780613e-01, 1.35806352e-01, 2.11811334e-01, 1.08780921e-01,
          4.49780613e-01, 4.37522322e-01, 5.02174795e-02, 0., 0.,
          4.37522322e-01, 3.11199635e-01, 4.37522322e-01, 3.61330152e-01,
          4.37522322e-01, 4.52647120e-01, 2.95631588e-01, 4.52647120e-01,
          2.23678514e-01, 4.52647120e-01, 1.91407263e-01, 4.30040918e-02,
          2.18251580e-03, 4.52647120e-01, 4.35848683e-01, 8.96458849e-02,
          1.69650838e-01, 8.45045075e-02, 4.35848683e-01, 4.35848683e-01,
          4.35848683e-01, 4.32113335e-02, 4.35848683e-01, 4.44068015e-01,
          4.44068015e-01, 4.44068015e-01, 9.33744907e-02, 4.44068015e-01,
          1.04997046e-02, 2.72067618e-02, 3.61484056e-03, 4.44068015e-01 ]
      - [ 1.93700063e-04, 5.17519474e-01, 5.17519474e-01, 3.01019639e-01,
          5.17519474e-01, 2.87894160e-02, 3.01841289e-01, 9.37637985e-02,
          3.29096592e-03, 1.89673170e-01, 8.87026191e-02, 3.23752016e-01,
          3.11565865e-02, 3.78032506e-01, 4.60385621e-01, 4.60385621e-01,
          4.60385621e-01, 2.58839786e-01, 4.22125518e-01, 4.26009893e-01,
          4.26009893e-01, 9.40769836e-02, 4.26009893e-01, 3.01689431e-02,
          3.26504171e-01, 1.06790319e-01, 3.81223559e-01, 1.94908768e-01,
          2.90572613e-01, 5.21740794e-01, 3.08361910e-02, 4.27654162e-02,
          0., 5.21740794e-01, 5.21740794e-01, 2.30103299e-01,
          2.62544700e-03, 5.65304935e-01, 5.65304935e-01, 1.41321242e-01,
          5.65304935e-01, 0., 9.73117054e-02, 7.58907497e-02,
          2.09420267e-02, 4.26528901e-01, 1.08537599e-01, 3.37682068e-01,
          2.54481137e-02, 4.26528901e-01, 0., 4.14821297e-01,
          3.89133185e-01, 4.26528901e-01, 5.25017262e-01, 2.68893003e-01,
          3.01308870e-01, 0., 5.25017262e-01, 0., 5.72719835e-02,
          3.81689221e-02, 5.25017262e-01, 4.40244883e-01, 1.44694820e-01,
          1.91187575e-01, 0., 4.40244883e-01, 0., 4.40244883e-01,
          4.03547972e-01, 4.40244883e-01, 1.83153345e-04, 3.11554909e-01,
          6.03163600e-01, 4.11459088e-01, 6.03163600e-01, 0., 0., 0.,
          1.83153345e-04, 5.40795363e-03, 3.01780067e-02, 1.17350809e-01,
          5.65430634e-02, 9.86015499e-01, 0., 0., 0., 5.40795363e-03,
          7.12172734e-03, 0., 0., 0., 9.94974136e-01, 0., 0., 0.,
          7.12172734e-03, 5.48915053e-03, 0., 0., 0., 9.94994640e-01, 0.,
          0., 0., 5.48915053e-03, 0., 0., 0., 0., 0., 0., 0., 0., 0., 0.,
          0., 0., 0., 0., 0., 0., 0., 0., 0., 0., 0., 0., 0., 0., 0., 0.,
          0., 0., 0., 0., 0., 0., 0., 0., 0., 0. ]
      - [ 4.36724663e-01, 8.84173140e-02, 1.25357490e-02, 2.95655429e-02,
          4.36724663e-01, 4.36724663e-01, 4.36724663e-01, 1.82062045e-01,
          4.36724663e-01, 4.87083405e-01, 4.23383825e-02, 8.95606205e-02,
          5.98495603e-02, 4.87083405e-01, 3.10705990e-01, 3.88105869e-01,
          1.51077151e-01, 4.87083405e-01, 5.65514266e-01, 3.53156850e-02,
          1.04999706e-01, 5.73582575e-02, 5.65514266e-01, 6.37702122e-02,
          1.13580093e-01, 4.90364060e-02, 5.65514266e-01, 3.85035157e-01,
          4.81299728e-01, 4.81299728e-01, 7.73694813e-02, 4.81299728e-01,
          1.99940037e-02, 5.30969426e-02, 1.70325916e-02, 3.77487957e-01,
          4.13574606e-01, 1.27324685e-01, 5.03628002e-03, 2.14244090e-02,
          4.13574606e-01, 4.13574606e-01, 4.13574606e-01, 3.52069408e-01,
          4.13574606e-01, 4.46531534e-01, 3.65052223e-02, 7.59786069e-02,
          1.97309591e-02, 4.46531534e-01, 3.63499433e-01, 4.46531534e-01,
          2.41560832e-01, 4.46531534e-01, 5.68326831e-01, 3.32434252e-02,
          9.87962708e-02, 1.86296478e-02, 5.68326831e-01, 2.25362610e-02,
          1.06956929e-01, 4.66714539e-02, 5.68326831e-01, 4.52670217e-01,
          2.61362016e-01, 4.60707664e-01, 9.18735415e-02, 5.40320992e-01,
          5.28698135e-03, 1.03913076e-01, 3.32776159e-02, 4.43634242e-01,
          0., 0., 0., 8.40879530e-02, 6.84668958e-01, 6.84668958e-01,
          2.15866074e-01, 4.41906042e-02, 0., 0., 0., 0., 0.,
          5.54316938e-01, 5.54316938e-01, 5.54316938e-01, 2.69560546e-01,
          0., 0., 0., 0., 0., 0., 0., 0., 0., 0., 0., 0., 0., 0., 0., 0.,
          0., 0., 0., 0., 0., 0., 0., 0., 0., 0., 0., 0., 0., 0., 0., 0.,
          0., 0., 0., 0., 0., 0., 0., 0., 0., 0., 0., 0., 0., 0., 0., 0.,
          0., 0., 0., 0., 0., 0., 0. ]
      - [ 5.11931121e-01, 4.59745973e-01, 2.37566724e-01, 9.13914014e-03,
          3.38613123e-01, 4.00564559e-02, 8.42875093e-02, 2.81930298e-01,
          5.11931121e-01, 4.12510961e-01, 4.47012186e-01, 4.47012186e-01,
          1.79524079e-03, 7.60430545e-02, 4.47012186e-01, 4.47012186e-01,
          7.44710863e-02, 1.21484064e-01, 3.23785037e-01, 3.33883822e-01,
          3.33883822e-01, 3.33883822e-01, 3.33883822e-01, 3.33883822e-01,
          3.33883822e-01, 3.33883822e-01, 3.33883822e-01, 1.53291494e-01,
          4.37473297e-01, 4.37473297e-01, 3.64837170e-01, 1.04245335e-01,
          4.48478200e-02, 4.37473297e-01, 4.37473297e-01, 2.46202439e-01,
          3.68751109e-01, 3.68751109e-01, 3.68751109e-01, 9.38373655e-02,
          3.68751109e-01, 3.68751109e-01, 3.68751109e-01, 1.88861996e-01,
          3.68751109e-01, 2.80786455e-01, 3.63841236e-01, 3.63841236e-01,
          1.62600577e-01, 3.11130404e-01, 3.63841236e-01, 3.63841236e-01,
          3.63841236e-01, 3.63841236e-01, 1.57456994e-01, 3.75070751e-01,
          3.75070751e-01, 3.71515065e-01, 1.88739181e-01, 3.75070751e-01,
          3.75070751e-01, 3.75070751e-01, 3.07284743e-01, 4.15651761e-02,
          3.25579405e-01, 4.22393084e-01, 4.22393084e-01, 3.90529513e-01,
          1.27900302e-01, 4.22393084e-01, 4.22393084e-01, 7.42657408e-02,
          3.60004872e-01, 3.60004872e-01, 3.60004872e-01, 1.82793111e-01,
          3.60004872e-01, 3.60004872e-01, 3.60004872e-01, 2.36147255e-01,
          3.60004872e-01, 1.38569802e-01, 3.75236481e-01, 3.75236481e-01,
          3.75236481e-01, 3.75236481e-01, 3.75236481e-01, 3.75236481e-01,
          3.08454067e-01, 1.92590356e-01, 2.90210813e-01, 2.86785692e-01,
          3.60211879e-01, 3.60211879e-01, 3.60211879e-01, 2.26753622e-01,
          3.60211879e-01, 3.60211879e-01, 3.60211879e-01, 3.47858131e-01,
          3.47858131e-01, 3.47858131e-01, 2.59184748e-01, 3.47858131e-01,
          2.86898702e-01, 3.47858131e-01, 3.47858131e-01, 3.47858131e-01,
          2.92456269e-01, 1.92328513e-01, 2.08366722e-01, 4.44087923e-01,
          4.63406652e-01, 4.63406652e-01, 3.85358334e-01, 1.04584157e-01,
          2.08060399e-01, 1.34677775e-02, 4.35014009e-01, 4.35014009e-01,
          2.99278349e-01, 2.12480009e-01, 4.35014009e-01, 4.35014009e-01,
          3.21695238e-01, 1.79285128e-02, 2.25057960e-01, 3.99136931e-01,
          3.99136931e-01, 3.91824782e-01, 1.96256787e-01, 1.54098630e-01,
          3.99136931e-01, 3.99136931e-01, 3.03859502e-01, 3.36907804e-01,
          3.82364362e-01, 3.08851540e-01, 2.32900053e-01, 3.82364362e-01,
          3.82364362e-01, 3.82364362e-01, 2.82563984e-01, 2.61513114e-01 ]
      - [ 0., 0., 0., 0., 0., 0., 0., 0., 0., 0., 0., 0., 0., 0., 0., 0.,
          0., 0., 3.23849618e-01, 6.66398406e-01, 6.66398406e-01, 0., 0.,
          0., 0., 0., 1.71749648e-02, 5.15825927e-01, 5.15825927e-01,
          5.15825927e-01, 0., 4.21941206e-02, 7.44194314e-02,
          3.97528470e-01, 1.49493292e-01, 9.44653079e-02, 5.75688422e-01,
          0., 0., 0., 5.75688422e-01, 0., 0., 0., 5.75688422e-01,
          5.75688422e-01, 0., 0., 0., 5.75688422e-01, 0., 0., 0.,
          5.75688422e-01, 4.67404515e-01, 3.48516077e-01, 4.67404515e-01,
          0., 4.67404515e-01, 0., 0., 0., 4.67404515e-01, 2.08105013e-01,
          4.33340460e-01, 4.33340460e-01, 0., 4.33340460e-01,
          4.33340460e-01, 4.33340460e-01, 4.25167792e-02, 1.07870638e-01,
          5.75688422e-01, 0., 0., 0., 5.75688422e-01, 0., 0., 0.,
          5.75688422e-01, 5.75688422e-01, 0., 0., 0., 5.75688422e-01, 0.,
          0., 0., 5.75688422e-01, 5.79833150e-01, 5.51084206e-02,
          4.99480069e-02, 0., 5.79833150e-01, 0., 0., 0., 5.62375009e-01,
          1.67461365e-01, 1.02181114e-01, 1.16045617e-01, 0.,
          6.48566008e-01, 6.48566008e-01, 3.03906918e-01, 2.24048384e-02,
          8.62367824e-02, 0., 0., 0., 0., 0., 0., 0., 0., 0., 0., 0., 0.,
          0., 0., 0., 0., 0., 0., 0., 0., 0., 0., 0., 0., 0., 0., 0., 0.,
          0., 0., 0., 0., 0., 0., 0., 0. ]
      - [ 4.41387653e-01, 0., 0., 1.16784327e-01, 4.41387653e-01,
          1.45129830e-01, 4.41387653e-01, 4.26142395e-01, 4.41387653e-01,
          5.71728110e-01, 0., 0., 9.37580466e-02, 5.71728110e-01,
          6.98667690e-02, 0., 0., 5.71728110e-01, 5.00790000e-01,
          3.55900168e-01, 2.60805845e-01, 4.92679849e-02, 5.00790000e-01,
          2.13341862e-01, 0., 0., 5.00790000e-01, 4.36568320e-01,
          4.36568320e-01, 1.90752372e-01, 6.45842031e-03, 4.36568320e-01,
          4.36568320e-01, 5.12882918e-02, 6.01734109e-02, 4.36568320e-01,
          4.20059144e-01, 0., 0., 0., 4.49104548e-01, 1.10835671e-01,
          4.49104548e-01, 4.49104548e-01, 4.49104548e-01, 5.57730913e-01,
          1.42167628e-01, 1.98443949e-01, 4.05906588e-02, 5.57730913e-01,
          0., 0., 0., 5.57730913e-01, 4.69687074e-01, 3.02255601e-01,
          4.47169602e-01, 1.94320574e-01, 4.69687074e-01, 4.80189361e-02,
          4.51842770e-02, 7.97322765e-03, 4.69687074e-01, 4.61779654e-01,
          2.81193018e-01, 2.21299350e-01, 8.24551955e-02, 4.61779654e-01,
          4.61779654e-01, 8.01435187e-02, 3.40721682e-02, 4.61779654e-01,
          1.51938275e-01, 1.24311307e-02, 4.15077060e-03, 0.,
          3.04023266e-01, 3.11287176e-02, 6.53573930e-01, 6.53573930e-01,
          1.50003597e-01, 4.75136429e-01, 4.29600477e-01, 2.94987559e-01,
          6.79637641e-02, 4.75136429e-01, 0., 5.77987470e-02,
          1.96102977e-01, 4.75136429e-01, 4.31678772e-01, 3.81244749e-01,
          4.31678772e-01, 2.86400974e-01, 4.31678772e-01, 6.53232858e-02,
          1.00785799e-01, 9.22147259e-02, 4.31678772e-01, 4.77981776e-01,
          4.42245334e-01, 1.78562909e-01, 6.22566007e-02, 4.77981776e-01,
          2.53611445e-01, 1.03992179e-01, 5.78919351e-02, 4.77981776e-01,
          2.93858111e-01, 1.79460198e-02, 5.99219836e-03, 0.,
          5.20607948e-01, 4.12959568e-02, 5.20607948e-01, 5.20607948e-01,
          3.05428922e-01, 4.96522039e-01, 3.98367167e-01, 1.28419206e-01,
          0., 4.96522039e-01, 0., 8.00883546e-02, 2.71728426e-01,
          4.96522039e-01, 4.29725260e-01, 4.29725260e-01, 4.29725260e-01,
          5.92112280e-02, 4.29725260e-01, 0., 7.50561580e-02,
          2.51493543e-01, 4.29725260e-01, 4.40902054e-01, 4.40902054e-01,
          2.29396150e-01, 4.49780636e-02, 4.40902054e-01, 3.88851732e-01,
          7.32287169e-02, 8.24842602e-02, 4.40902054e-01 ]
      - [ 3.77176881e-01, 3.77176881e-01, 3.73967975e-01, 1.41284361e-01,
          3.77176881e-01, 1.34532526e-01, 3.27120245e-01, 3.77176881e-01,
          3.77176881e-01, 4.03040946e-01, 4.03040946e-01, 3.29852551e-01,
          1.23142146e-01, 4.03040946e-01, 1.08071782e-01, 2.63653636e-01,
          3.75561118e-01, 4.03040946e-01, 4.35171843e-01, 3.67376447e-01,
          2.80557394e-01, 1.05059117e-01, 4.35171843e-01, 1.08758092e-01,
          2.52168000e-01, 3.56927276e-01, 4.35171843e-01, 4.09305066e-01,
          3.57816607e-01, 2.79432774e-01, 1.00375965e-01, 4.09305066e-01,
          1.26981288e-01, 3.06957334e-01, 4.08388823e-01, 4.09305066e-01,
          3.98941748e-02, 1.79265618e-01, 4.89941984e-01, 3.39826167e-01,
          4.89941984e-01, 3.17412436e-01, 4.89941984e-01, 1.53244391e-01,
          3.91543806e-02, 4.51396219e-02, 1.59961402e-01, 5.15958190e-01,
          2.87737131e-01, 5.15958190e-01, 2.61063606e-01, 5.15958190e-01,
          1.25258848e-01, 4.41223308e-02, 4.71772924e-02, 1.24452338e-01,
          5.25192380e-01, 2.55161732e-01, 5.25192380e-01, 2.61276126e-01,
          5.25192380e-01, 1.17959619e-01, 4.76733372e-02, 4.38655615e-02,
          1.21330895e-01, 5.16492903e-01, 2.33979747e-01, 5.16492903e-01,
          3.18635851e-01, 5.16492903e-01, 1.39801532e-01, 4.56269272e-02,
          0., 3.44663978e-01, 4.16852295e-01, 4.16852295e-01,
          4.16852295e-01, 3.18121374e-01, 4.16852295e-01, 2.84214824e-01,
          0., 0., 3.55563015e-01, 4.69240189e-01, 3.10713470e-01,
          4.69240189e-01, 2.02153146e-01, 4.69240189e-01, 2.66308635e-01,
          0., 0., 2.92596459e-01, 5.10344982e-01, 1.65330827e-01,
          5.10344982e-01, 1.43069133e-01, 5.10344982e-01, 2.83074886e-01,
          0., 0., 2.43630677e-01, 5.27960122e-01, 8.99869651e-02,
          5.27960122e-01, 8.31344947e-02, 5.27960122e-01, 2.90063500e-01,
          0., 0., 0., 0., 0., 0., 0., 0., 0., 0., 0., 0., 0., 0., 0., 0.,
          0., 0., 0., 0., 0., 0., 0., 0., 0., 0., 0., 0., 0., 0., 0., 0.,
          0., 0., 0., 0., 0. ]
      - [ 0., 0., 0., 0., 9.95024860e-01, 0., 0., 0., 0., 2.04369724e-01,
          4.82967228e-01, 4.82967228e-01, 4.82967228e-01, 4.82967228e-01,
          1.76031347e-02, 9.45913568e-02, 9.75100324e-02, 4.01772149e-02,
          3.68786067e-01, 2.91335732e-01, 3.68786067e-01, 3.68786067e-01,
          3.68786067e-01, 1.29079163e-01, 2.80639827e-01, 3.68786067e-01,
          3.68786067e-01, 4.14114445e-01, 4.14114445e-01, 5.56137972e-02,
          9.22604427e-02, 4.14114445e-01, 4.14114445e-01, 3.62567544e-01,
          7.28585497e-02, 4.01910096e-01, 0., 0., 0., 0., 0., 0., 0., 0.,
          0., 0., 1.70230448e-01, 5.67254663e-01, 5.67254663e-01,
          5.67254663e-01, 0., 2.42681839e-04, 3.27582401e-03,
          3.55753349e-03, 1.39313370e-01, 3.83390151e-02, 4.62955654e-01,
          5.84970057e-01, 5.84970057e-01, 1.88595250e-01, 7.09926561e-02,
          3.60163897e-02, 1.80741593e-01, 1.57324314e-01, 4.16007452e-02,
          1.44525409e-01, 3.57611805e-01, 5.18219948e-01, 5.18219948e-01,
          5.18219948e-01, 1.51720401e-02, 1.16976395e-01, 0., 0., 0., 0.,
          0., 0., 0., 0., 0., 0., 0., 0., 0., 0., 0., 0., 0., 0., 0., 0.,
          0., 0., 0., 0., 0., 0., 0., 0., 0., 0., 0., 0., 0., 0., 0., 0.,
          0., 0., 0., 0., 0., 0., 0., 0., 0., 0., 0., 0., 0., 0., 0., 0.,
          0., 0., 0., 0., 0., 0., 0., 0., 0., 0., 0., 0., 0., 0., 0., 0.,
          0., 0., 0., 0. ]
      - [ 4.10840839e-01, 2.59713322e-01, 1.93656638e-01, 0.,
          4.10840839e-01, 4.10840839e-01, 4.10840839e-01, 2.16774046e-01,
          4.10840839e-01, 5.75586677e-01, 0., 0., 0., 5.75586677e-01,
          1.87710710e-02, 8.57287669e-05, 3.35044926e-04, 5.75586677e-01,
          5.23811042e-01, 3.49948049e-01, 2.21745938e-01, 0.,
          5.23811042e-01, 0., 0., 0., 5.23811042e-01, 4.17859048e-01,
          4.17859048e-01, 3.47570777e-01, 0., 4.17859048e-01,
          3.87544721e-01, 1.05888359e-01, 1.23257883e-01, 4.17859048e-01,
          4.03190047e-01, 1.61018565e-01, 1.91121325e-01, 0.,
          4.03190047e-01, 3.47428620e-01, 4.03190047e-01, 4.03190047e-01,
          4.03190047e-01, 5.75686634e-01, 0., 0., 0., 5.75686634e-01,
          2.50797463e-03, 0., 0., 5.75686634e-01, 4.46633637e-01,
          4.46633637e-01, 4.46633637e-01, 3.32557447e-02, 4.46633637e-01,
          6.40290901e-02, 3.48464295e-04, 0., 4.38641489e-01,
          3.76558512e-01, 3.26251507e-01, 1.97411790e-01, 6.98242569e-03,
          3.76558512e-01, 3.76558512e-01, 3.76558512e-01, 3.76558512e-01,
          3.76558512e-01, 4.75863665e-01, 2.27167401e-02, 2.82407403e-02,
          0., 5.81884980e-01, 4.86688390e-02, 2.37845257e-01,
          1.88140631e-01, 5.77497840e-01, 5.75688422e-01, 0., 0., 0.,
          5.75688422e-01, 0., 0., 0., 5.75688422e-01, 4.80824679e-01,
          2.64976174e-01, 3.55508208e-01, 6.00322150e-02, 6.39729500e-01,
          1.05978891e-01, 6.29036454e-04, 0., 3.76473874e-01,
          2.62412895e-02, 8.18885043e-02, 1.22561596e-01, 2.28137393e-02,
          6.89141452e-01, 6.89141452e-01, 1.38731226e-01, 3.25015001e-02,
          7.05976272e-03, 0., 0., 0., 0., 0., 0., 0., 0., 0., 0., 0., 0.,
          0., 0., 0., 0., 0., 0., 0., 0., 0., 0., 0., 0., 0., 0., 0., 0.,
          0., 0., 0., 0., 0., 0., 0., 0. ]
      - [ 4.39676344e-01, 5.62554300e-02, 4.16338407e-02, 4.67599519e-02,
          4.39676344e-01, 4.39676344e-01, 4.39676344e-01, 1.48145258e-01,
          4.39676344e-01, 5.37361562e-01, 1.55177113e-05, 7.89246038e-02,
          1.27564996e-01, 5.37361562e-01, 1.58561707e-01, 2.75203973e-01,
          7.05696791e-02, 5.37361562e-01, 5.75096667e-01, 2.05862161e-05,
          6.17586484e-05, 0., 5.75096667e-01, 3.73022482e-02,
          2.56391130e-02, 1.22297897e-05, 5.75096667e-01, 4.38081712e-01,
          4.38081712e-01, 4.38081712e-01, 7.02931657e-02, 4.38081712e-01,
          1.50112167e-01, 9.25810412e-02, 0., 4.38081712e-01,
          4.39629644e-01, 3.75676230e-02, 2.07764544e-02, 2.86967345e-02,
          4.39629644e-01, 4.39629644e-01, 4.39629644e-01, 1.63005710e-01,
          4.39629644e-01, 4.94266808e-01, 0., 6.36601895e-02,
          1.03580542e-01, 4.94266808e-01, 2.76115745e-01, 3.99445593e-01,
          1.07639775e-01, 4.94266808e-01, 5.75206697e-01, 0., 0.,
          1.00319111e-03, 5.75206697e-01, 3.39427404e-02, 2.26939954e-02,
          0., 5.75206697e-01, 3.39759022e-01, 5.04885375e-01,
          5.04885375e-01, 5.53542785e-02, 5.04885375e-01, 1.13582417e-01,
          6.96982071e-02, 0., 3.06546628e-01, 4.35330600e-01,
          3.34027261e-02, 0., 1.97414905e-04, 4.35330600e-01,
          4.35330600e-01, 4.35330600e-01, 2.16730297e-01, 4.35330600e-01,
          4.65395272e-01, 0., 0., 4.00345633e-03, 4.65395272e-01,
          3.16016763e-01, 4.65395272e-01, 1.70580566e-01, 4.65395272e-01,
          5.75658619e-01, 0., 0., 7.64673389e-03, 5.75658619e-01,
          6.69258973e-03, 0., 0., 5.75658619e-01, 3.68019134e-01,
          5.00473738e-01, 5.00473738e-01, 1.00379758e-01, 5.00473738e-01,
          3.05618322e-03, 0., 0., 3.13139170e-01, 4.38487202e-01,
          1.28737345e-01, 2.40255104e-04, 0., 4.38487202e-01,
          4.38487202e-01, 4.38487202e-01, 1.33008942e-01, 4.38487202e-01,
          5.38564503e-01, 6.51249487e-04, 1.95374852e-03, 0.,
          5.38564503e-01, 1.83975935e-01, 2.92098850e-01, 7.27548674e-02,
          5.38564503e-01, 5.75684607e-01, 8.72412929e-04, 2.61723879e-03,
          0., 5.75684607e-01, 0., 2.27444782e-03, 7.58149195e-04,
          5.75684607e-01, 4.36568022e-01, 4.36568022e-01, 4.36568022e-01,
          1.92345157e-01, 4.36568022e-01, 7.53818452e-02, 1.24850753e-03,
          4.16169205e-04, 4.36568022e-01 ]
      - [ 3.81155312e-01, 3.81155312e-01, 2.58839905e-01, 8.87583494e-02,
          3.81155312e-01, 3.81155312e-01, 3.81155312e-01, 2.22799480e-01,
          3.81155312e-01, 4.56408739e-01, 4.21800874e-02, 4.59801368e-02,
          8.91648456e-02, 4.56408739e-01, 2.77647883e-01, 4.56408739e-01,
          2.70690322e-01, 4.56408739e-01, 5.25845647e-01, 4.56236256e-03,
          8.08663517e-02, 2.81857997e-01, 5.25845647e-01, 2.65721589e-01,
          9.26597267e-02, 3.11663421e-03, 5.25845647e-01, 4.37066227e-01,
          4.37066227e-01, 4.37066227e-01, 1.92132190e-01, 4.37066227e-01,
          5.76357394e-02, 1.60182025e-02, 2.53824191e-03, 4.37066227e-01,
          3.76719505e-01, 3.76719505e-01, 3.76719505e-01, 3.76719505e-01,
          3.76719505e-01, 3.76719505e-01, 2.68633097e-01, 7.91265368e-02,
          2.57499725e-01, 3.78370881e-01, 3.48495275e-01, 2.53855318e-01,
          1.26126453e-01, 3.78370881e-01, 3.78370881e-01, 3.78370881e-01,
          2.80353338e-01, 3.78370881e-01, 4.29111451e-01, 3.35177660e-01,
          1.59322664e-01, 1.49606049e-01, 4.29111451e-01, 3.21768284e-01,
          2.72412688e-01, 3.24730992e-01, 4.29111451e-01, 4.24742699e-01,
          4.24742699e-01, 4.24742699e-01, 8.28530490e-02, 4.24742699e-01,
          5.94241172e-02, 2.55880862e-01, 1.33620307e-01, 4.24742699e-01,
          4.42978948e-01, 2.50879377e-01, 4.42978948e-01, 3.84251744e-01,
          4.42978948e-01, 7.99345504e-03, 0., 0., 4.42978948e-01,
          3.61825436e-01, 3.61825436e-01, 3.61825436e-01, 3.61825436e-01,
          3.61825436e-01, 3.61825436e-01, 2.65619546e-01, 9.69937146e-02,
          3.61825436e-01, 4.04592365e-01, 2.45841905e-01, 1.43179506e-01,
          1.98213324e-01, 4.04592365e-01, 4.04592365e-01, 4.04592365e-01,
          2.39282563e-01, 4.04592365e-01, 4.43682969e-01, 3.83895755e-01,
          4.43682969e-01, 1.06025755e-01, 4.43682969e-01, 3.79382521e-02,
          2.06568673e-01, 7.36370906e-02, 4.43682969e-01, 4.97317225e-01,
          4.97317225e-01, 4.97317225e-01, 2.99559422e-02, 8.65889154e-03,
          5.29977679e-02, 4.28202040e-02, 1.09871142e-02, 4.97317225e-01,
          3.49900484e-01, 3.49900484e-01, 3.49900484e-01, 2.65535474e-01,
          3.49900484e-01, 3.49900484e-01, 3.49900484e-01, 2.62645185e-01,
          3.49900484e-01, 4.29092973e-01, 1.05896875e-01, 1.91413894e-01,
          6.66612610e-02, 4.29092973e-01, 4.29092973e-01, 4.29092973e-01,
          1.51037961e-01, 4.29092973e-01, 4.53109592e-01, 4.53109592e-01,
          4.53109592e-01, 2.44693402e-02, 4.53109592e-01, 4.27203049e-04,
          4.64722924e-02, 1.54907620e-02, 4.13814247e-01 ]
      - [ 6.22318089e-01, 9.55328047e-02, 1.59960019e-03, 0.,
          6.22318089e-01, 4.39368375e-03, 1.50538201e-03, 4.08304972e-04,
          4.58340675e-01, 5.41297674e-01, 6.54500946e-02, 3.61642241e-03,
          5.57980314e-03, 5.41297674e-01, 5.41297674e-01, 4.35379110e-02,
          1.40708787e-02, 3.30398858e-01, 5.10435164e-01, 2.20850296e-02,
          6.60835952e-03, 6.10706303e-03, 6.73157930e-01, 3.47999841e-01,
          5.24911983e-03, 1.54674763e-03, 3.97355974e-01, 2.70788550e-01,
          6.94851130e-02, 5.96662015e-02, 1.06968135e-02, 6.66410089e-01,
          6.66410089e-01, 1.84749104e-02, 2.68105161e-03, 1.51541263e-01,
          0., 0., 0., 0., 0., 0., 0., 0., 0., 0., 0., 0., 0., 0., 0., 0.,
          0., 0., 0., 0., 0., 0., 0., 0., 0., 0., 0., 0., 0., 0., 0., 0.,
          0., 0., 0., 0., 0., 0., 0., 0., 0., 0., 0., 0., 0., 0., 0., 0.,
          0., 0., 0., 0., 0., 0., 0., 0., 0., 0., 0., 0., 0., 0., 0., 0.,
          0., 0., 0., 0., 0., 0., 0., 0., 0., 0., 0., 0., 0., 0., 0., 0.,
          0., 0., 0., 0., 0., 0., 0., 0., 0., 0., 0., 0., 0., 0., 0., 0.,
          0., 0., 0., 0., 0., 0., 0., 0., 0., 0., 0., 0. ]
      - [ 8.91207065e-03, 4.60028172e-01, 4.60028172e-01, 5.71346544e-02,
          4.60028172e-01, 3.61971140e-01, 4.60028172e-01, 1.19074315e-01,
          1.88572537e-02, 2.50119627e-01, 1.02613978e-01, 4.08150256e-01,
          1.73498198e-01, 3.81303132e-01, 4.08150256e-01, 4.08150256e-01,
          4.08150256e-01, 2.84592628e-01, 2.44417652e-01, 4.72353995e-01,
          4.72353995e-01, 1.59104064e-01, 4.01088864e-01, 1.24668032e-01,
          4.72353995e-01, 1.62489593e-01, 1.95079073e-01, 2.75413007e-01,
          1.29417151e-01, 3.64543021e-01, 1.20322816e-02, 4.14610701e-03,
          0., 5.71836174e-01, 5.71836174e-01, 3.38588327e-01,
          5.25757521e-02, 5.51982701e-01, 5.51982701e-01, 1.29205734e-01,
          5.51982701e-01, 4.57172282e-02, 1.82962164e-01, 1.14233874e-01,
          1.11176148e-01, 4.87718672e-01, 9.30529386e-02, 2.88315266e-01,
          2.04598419e-02, 4.87718672e-01, 1.17296405e-01, 3.63924861e-01,
          2.07647055e-01, 4.87718672e-01, 4.54729885e-01, 3.92150432e-01,
          4.54729885e-01, 0., 4.54729885e-01, 0., 9.77956653e-02,
          7.06740022e-02, 4.54729885e-01, 4.69062716e-01, 5.10586202e-02,
          7.16329589e-02, 0., 4.69062716e-01, 0., 4.33602601e-01,
          3.73504937e-01, 4.69062716e-01, 9.05402645e-04, 3.16739142e-01,
          6.14931643e-01, 3.70476753e-01, 6.14931643e-01, 0., 0., 0.,
          9.05402645e-04, 6.98521780e-03, 2.52425633e-02, 9.48626697e-02,
          4.27567810e-02, 9.89227116e-01, 0., 0., 0., 6.98521780e-03,
          5.41572180e-03, 0., 0., 0., 9.94995534e-01, 0., 0., 0.,
          5.41572180e-03, 5.86490752e-03, 0., 0., 0., 9.94990468e-01, 0.,
          0., 0., 5.86490752e-03, 0., 0., 0., 0., 0., 0., 0., 0., 0., 0.,
          0., 0., 0., 0., 0., 0., 0., 0., 0., 0., 0., 0., 0., 0., 0., 0.,
          0., 0., 0., 0., 0., 0., 0., 0., 0., 0. ]
      - [ 4.32753772e-01, 4.32753772e-01, 2.30729237e-01, 4.32753772e-01,
          7.07492307e-02, 1.66221173e-03, 3.24623026e-02, 4.32753772e-01,
          4.32753772e-01, 4.15079504e-01, 4.15079504e-01, 3.24099720e-01,
          6.54175994e-04, 4.15079504e-01, 4.15079504e-01, 2.91294277e-01,
          1.29473627e-01, 3.16279382e-01, 2.57252753e-01, 1.45006850e-01,
          3.95488441e-01, 3.83685887e-01, 3.95488441e-01, 1.33002743e-01,
          3.43939185e-01, 3.95488441e-01, 3.95488441e-01, 1.53326422e-01,
          3.22648197e-01, 3.53779078e-01, 3.53779078e-01, 3.53779078e-01,
          3.53779078e-01, 3.53779078e-01, 3.53779078e-01, 3.43360782e-01,
          3.36343467e-01, 1.40965730e-01, 4.94378299e-01, 4.94378299e-01,
          4.94378299e-01, 1.88935980e-01, 1.20204791e-01, 8.85621011e-02,
          2.66167551e-01, 5.91715649e-02, 4.87102903e-02, 1.10087454e-01,
          2.68873721e-01, 5.38757384e-01, 5.38757384e-01, 5.38757384e-01,
          1.82198152e-01, 1.89393871e-02, 4.07106765e-02, 4.65787202e-02,
          3.32244068e-01, 5.01076877e-01, 5.01076877e-01, 5.01076877e-01,
          2.85046726e-01, 1.88015833e-01, 1.04627468e-01, 3.50856408e-02,
          6.99634701e-02, 4.31022316e-01, 4.31022316e-01, 4.30465847e-01,
          1.35054976e-01, 4.31022316e-01, 4.31022316e-01, 2.07139775e-01,
          0., 8.58137943e-03, 4.86044019e-01, 4.86044019e-01,
          4.86044019e-01, 4.86044019e-01, 2.23843917e-01, 3.26892547e-03,
          0., 0., 1.20760000e-03, 2.11022884e-01, 4.85680908e-01,
          4.85680908e-01, 4.85680908e-01, 4.85680908e-01, 8.41019899e-02,
          0., 0., 4.49646898e-02, 2.99053133e-01, 2.48005301e-01,
          2.49406695e-01, 5.53140163e-01, 5.53140163e-01, 4.09124911e-01,
          0., 0., 1.66633800e-02, 4.43990141e-01, 4.43990141e-01,
          4.43990141e-01, 4.43990141e-01, 4.43990141e-01, 9.82404947e-02,
          0., 0., 0., 0., 0., 0., 0., 0., 0., 0., 0., 0., 0., 0., 0., 0.,
          0., 0., 0., 0., 0., 0., 0., 0., 0., 0., 0., 0., 0., 0., 0., 0.,
          0., 0., 0., 0., 0. ]
      - [ 8.76394510e-02, 2.54817069e-01, 1.20105684e-01, 4.55253981e-02,
          1.26545489e-01, 3.64184856e-01, 6.14568770e-01, 6.14568770e-01,
          2.68214922e-02, 0., 7.73365702e-03, 1.88216254e-01,
          4.45945472e-01, 4.45945472e-01, 4.45945472e-01, 4.45945472e-01,
          4.05698091e-01, 0., 0., 2.45279633e-03, 6.32605851e-02,
          1.97061956e-01, 9.73049283e-01, 2.20627915e-02, 1.18446108e-02,
          1.43594982e-04, 0., 0., 0., 0., 0., 9.95024860e-01, 0., 0., 0.,
          0., 7.08325708e-04, 2.15845299e-03, 2.49645412e-02,
          3.45744044e-02, 4.93217945e-01, 5.95842779e-01, 5.95842779e-01,
          1.97244242e-01, 4.77195979e-04, 0., 0., 0., 0., 1.09707359e-02,
          6.29419446e-01, 6.29419446e-01, 4.48617578e-01, 0., 0., 0., 0.,
          0., 0., 0., 0., 0., 0., 0., 0., 0., 0., 0., 0., 0., 0., 0., 0.,
          3.88350757e-03, 5.70398606e-02, 9.97589901e-02, 5.71374476e-01,
          5.71374476e-01, 5.71374476e-01, 4.08362299e-02, 0., 0., 0., 0.,
          0., 1.76083714e-01, 6.93056583e-01, 6.93056583e-01,
          3.76984440e-02, 0., 0., 0., 0., 0., 0., 0., 0., 0., 0., 0., 0.,
          0., 0., 0., 0., 0., 0., 0., 0., 0., 0., 0., 0., 0., 0., 0., 0.,
          0., 0., 0., 0., 0., 0., 0., 0., 0., 0., 0., 0., 0., 0., 0., 0.,
          0., 0., 0., 0., 0., 0., 0., 0., 0., 0., 0. ]
      - [ 4.44254786e-01, 4.44254786e-01, 3.43156576e-01, 2.91731477e-01,
          3.52342986e-02, 5.59840119e-04, 4.48075794e-02, 4.44254786e-01,
          4.44254786e-01, 4.23402458e-01, 4.23402458e-01, 4.23402458e-01,
          0., 3.42494071e-01, 3.92485857e-01, 2.22834617e-01,
          1.59767136e-01, 3.33816379e-01, 2.71498501e-01, 1.77650988e-01,
          3.92776459e-01, 3.27474564e-01, 3.92776459e-01, 1.10446543e-01,
          3.92776459e-01, 3.92776459e-01, 3.92776459e-01, 1.16390094e-01,
          3.58200163e-01, 3.58200163e-01, 3.58200163e-01, 3.58200163e-01,
          3.58200163e-01, 3.58200163e-01, 3.58200163e-01, 2.91072130e-01,
          4.39252943e-01, 2.34084040e-01, 4.39252943e-01, 4.39252943e-01,
          4.39252943e-01, 2.30059512e-02, 6.60093501e-02, 1.41294196e-01,
          3.79728466e-01, 1.04570754e-01, 1.05834045e-01, 7.08610639e-02,
          8.11545923e-02, 5.49280167e-01, 5.49280167e-01, 5.49280167e-01,
          2.34391063e-01, 2.65770517e-02, 4.89046723e-02, 5.29539175e-02,
          3.90869409e-01, 4.79747981e-01, 4.79747981e-01, 4.79747981e-01,
          2.74042994e-01, 2.21021846e-01, 1.51026249e-01, 4.86155152e-02,
          9.71898362e-02, 4.32475150e-01, 4.32475150e-01, 4.19595301e-01,
          8.14596266e-02, 4.32475150e-01, 4.32475150e-01, 2.30294719e-01,
          0., 1.60958227e-02, 5.74153960e-01, 5.74153960e-01,
          5.74153960e-01, 4.79079783e-02, 5.08062132e-02, 1.31519241e-02,
          0., 0., 4.33024485e-03, 8.20015296e-02, 1.22405298e-01,
          5.72122395e-01, 5.26231110e-01, 5.72122395e-01, 2.02468827e-01,
          0., 0., 4.29251753e-02, 4.26726192e-01, 4.26726192e-01,
          4.02285188e-01, 4.26726192e-01, 4.26726192e-01, 3.21994185e-01,
          0., 0., 9.06237960e-03, 4.44902331e-01, 4.44902331e-01,
          4.44902331e-01, 2.92976588e-01, 4.44902331e-01, 3.39685827e-01,
          4.99980338e-02, 0., 0., 0., 0., 0., 0., 0., 0., 0., 0., 0., 0.,
          0., 0., 0., 0., 0., 0., 0., 0., 0., 0., 0., 0., 0., 0., 0., 0.,
          0., 0., 0., 0., 0., 0., 0., 0. ]
      - [ 4.21992153e-01, 6.28531561e-05, 9.20126121e-03, 4.58300747e-02,
          4.21992153e-01, 4.21992153e-01, 4.21992153e-01, 3.21267039e-01,
          4.21992153e-01, 4.42068547e-01, 2.99874780e-04, 9.59407538e-02,
          4.42068547e-01, 4.42068547e-01, 4.41386789e-01, 9.92900133e-02,
          5.48312149e-04, 4.42068547e-01, 4.09565687e-01, 3.86378556e-01,
          3.67394358e-01, 3.50043148e-01, 4.09565687e-01, 2.92439699e-01,
          1.89188700e-02, 4.36439528e-04, 4.09565687e-01, 4.58791733e-01,
          3.92120004e-01, 2.00354308e-01, 8.06829929e-02, 4.58791733e-01,
          4.58791733e-01, 4.33541089e-02, 6.34565502e-02, 3.97028625e-01,
          4.45772976e-01, 1.49048516e-03, 1.33005984e-03, 2.31114216e-03,
          4.45772976e-01, 4.43857238e-02, 4.45772976e-01, 4.45772976e-01,
          4.45772976e-01, 5.74094057e-01, 2.47245710e-02, 1.46367857e-02,
          4.38016504e-02, 5.74094057e-01, 3.06974165e-02, 2.59823017e-02,
          3.39676104e-02, 5.74094057e-01, 4.45960134e-01, 4.45960134e-01,
          4.45960134e-01, 3.36062945e-02, 4.45960134e-01, 1.41382392e-03,
          2.09656917e-03, 2.70619476e-03, 4.45960134e-01, 4.13963854e-01,
          4.13963854e-01, 3.43899369e-01, 1.57871302e-02, 4.13963854e-01,
          4.13963854e-01, 1.00579262e-01, 1.01990491e-01, 4.13963854e-01,
          4.73523647e-01, 1.83509430e-03, 2.30861129e-03, 4.01149644e-03,
          6.09513700e-01, 5.08072823e-02, 2.88129658e-01, 2.10662752e-01,
          5.17859757e-01, 5.74709117e-01, 1.43719548e-02, 1.27384048e-02,
          3.81206013e-02, 5.74709117e-01, 2.67159808e-02, 2.26124134e-02,
          1.85035467e-02, 5.74709117e-01, 5.68404555e-01, 1.79579362e-01,
          2.27077514e-01, 4.44453284e-02, 5.79826713e-01, 1.86982437e-03,
          2.77277571e-03, 2.24607205e-03, 4.99122113e-01, 5.74149378e-02,
          1.17416762e-01, 1.64346159e-01, 3.37923206e-02, 6.88153982e-01,
          6.88153982e-01, 1.49605190e-02, 2.82740896e-03, 2.34922599e-02,
          0., 0., 0., 0., 0., 0., 0., 0., 0., 0., 0., 0., 0., 0., 0., 0.,
          0., 0., 0., 0., 0., 0., 0., 0., 0., 0., 0., 0., 0., 0., 0., 0.,
          0., 0., 0., 0. ]
      - [ 0., 0., 0., 0., 9.95024860e-01, 0., 0., 0., 0., 1.95640340e-01,
          4.81969327e-01, 4.81969327e-01, 4.81969327e-01, 4.81969327e-01,
          2.00500078e-02, 1.19415373e-01, 1.08467005e-01, 3.61409113e-02,
          3.53030264e-01, 3.53030264e-01, 3.53030264e-01, 3.37819964e-01,
          3.53030264e-01, 9.96894911e-02, 3.53030264e-01, 3.53030264e-01,
          3.53030264e-01, 4.06623811e-01, 4.06623811e-01, 3.61738838e-02,
          4.24117446e-02, 4.06623811e-01, 4.06623811e-01, 4.06623811e-01,
          8.20528716e-02, 3.99228334e-01, 0., 0., 0., 0., 0., 0., 0., 0.,
          0., 3.14912992e-04, 2.93467134e-01, 5.50105274e-01,
          5.50105274e-01, 5.50105274e-01, 4.10099654e-03, 1.65405322e-03,
          1.39638167e-02, 1.79285258e-02, 1.93625569e-01, 1.10558063e-01,
          4.83020753e-01, 3.58325779e-01, 6.90396547e-01, 4.86541130e-02,
          2.69314274e-02, 1.25782892e-01, 2.93472826e-01, 2.87246138e-01,
          1.20577373e-01, 6.03889860e-03, 5.24933857e-04, 5.55202842e-01,
          5.55202842e-01, 4.92197990e-01, 3.64540480e-02, 1.93084598e-01,
          0., 0., 0., 0., 0., 0., 0., 0., 0., 0., 0., 0., 0., 0., 0., 0.,
          0., 0., 0., 0., 0., 0., 0., 0., 0., 0., 0., 0., 0., 0., 0., 0.,
          0., 0., 0., 0., 0., 0., 0., 0., 0., 0., 0., 0., 0., 0., 0., 0.,
          0., 0., 0., 0., 0., 0., 0., 0., 0., 0., 0., 0., 0., 0., 0., 0.,
          0., 0., 0., 0., 0., 0., 0., 0. ]
      - [ 1.15368553e-01, 6.96446240e-01, 6.96446240e-01, 3.81336547e-02,
          9.05581638e-02, 0., 0., 0., 2.83064437e-03, 1.10147282e-01,
          4.54683840e-01, 4.54683840e-01, 2.17333678e-02, 1.79958135e-01,
          4.54683840e-01, 4.54683840e-01, 3.51358652e-01, 8.13865010e-03,
          6.15179352e-03, 5.35968952e-02, 4.85201627e-02, 0.,
          4.97435182e-01, 4.97435182e-01, 4.97435182e-01, 4.97435182e-01,
          0., 2.62394637e-01, 4.72563952e-01, 4.72563952e-01,
          2.06410084e-02, 2.71075070e-01, 3.95292699e-01, 4.72563952e-01,
          1.62219420e-01, 0., 1.43555894e-01, 5.20857275e-01,
          5.20857275e-01, 3.72957587e-01, 5.20857275e-01, 0.,
          5.02404245e-03, 2.41263639e-02, 1.43555894e-01, 4.90681380e-02,
          2.39742994e-01, 4.73397791e-01, 1.81385487e-01, 4.73397791e-01,
          4.73397791e-01, 4.73397791e-01, 6.04731552e-02, 4.90681380e-02,
          4.15028095e-01, 4.47049290e-01, 4.47049290e-01, 0.,
          4.77445014e-02, 4.47049290e-01, 4.47049290e-01, 9.42346081e-02,
          1.12756751e-01, 2.42700040e-01, 4.66198266e-01, 4.66198266e-01,
          0., 0., 4.66198266e-01, 4.66198266e-01, 2.58973569e-01,
          3.07528302e-03, 4.07227904e-01, 4.07227904e-01, 5.68344556e-02,
          0., 4.07227904e-01, 1.95890456e-01, 4.07227904e-01,
          3.53773683e-01, 4.07227904e-01, 5.49366474e-01, 2.04473227e-01,
          1.90865267e-02, 0., 5.49366474e-01, 1.68000814e-02,
          4.49069366e-02, 2.11260021e-01, 5.49366474e-01, 4.86466646e-01,
          4.86466646e-01, 1.94540679e-01, 9.92338918e-03, 4.86466646e-01,
          1.84445735e-02, 3.75030003e-02, 9.40786079e-02, 4.86466646e-01,
          2.93998718e-01, 4.18855250e-01, 3.56256723e-01, 6.37527183e-03,
          4.18855250e-01, 4.18855250e-01, 4.18855250e-01, 2.74438024e-01,
          7.31168091e-02, 1.69221237e-01, 1.17616773e-01, 3.72486897e-02,
          0., 2.79877871e-01, 5.29081404e-01, 5.29081404e-01,
          5.29081404e-01, 1.80959046e-01, 4.14626002e-01, 4.76358086e-02,
          0., 0., 6.15113914e-01, 1.20302111e-01, 4.29576188e-01,
          2.24602968e-01, 4.38011974e-01, 4.59233791e-01, 1.07685633e-01,
          4.44506213e-06, 1.00763720e-02, 7.69486248e-01, 2.48979982e-02,
          1.69001315e-02, 3.18194404e-02, 4.19165432e-01, 8.34045038e-02,
          7.36068115e-02, 4.41009570e-06, 9.99710895e-03, 6.26150370e-01,
          4.19689298e-01, 6.26150370e-01, 1.36255458e-01, 4.94055673e-02 ]
      - [ 0., 6.28052338e-04, 5.01101501e-02, 1.25973195e-01,
          9.85791862e-01, 0., 0., 0., 0., 6.66692629e-02, 5.67850828e-01,
          5.67850828e-01, 1.02327898e-01, 5.67850828e-01, 4.69970657e-03,
          9.78562906e-02, 4.94845249e-02, 1.85372145e-03, 2.26345435e-01,
          3.74397039e-01, 3.74397039e-01, 1.41200244e-01, 3.74397039e-01,
          3.74397039e-01, 3.74397039e-01, 3.74397039e-01, 2.89915264e-01,
          4.25439984e-01, 4.25439984e-01, 2.10143134e-01, 7.29053617e-02,
          4.25439984e-01, 4.25439984e-01, 4.05581087e-01, 7.88017213e-02,
          2.27095470e-01, 0., 0., 0., 0., 0., 0., 0., 0., 0.,
          1.65043818e-03, 5.06452203e-01, 5.91204524e-01, 5.91204524e-01,
          1.89712569e-01, 0., 3.86508331e-02, 3.25406268e-02,
          3.33115505e-03, 2.54963696e-01, 1.98724508e-01, 3.92963737e-01,
          3.92963737e-01, 3.92963737e-01, 2.07460120e-01, 2.76467234e-01,
          3.92963737e-01, 3.92963737e-01, 4.35989529e-01, 3.76511335e-01,
          1.00821577e-01, 6.67308867e-02, 4.35989529e-01, 4.35989529e-01,
          4.35989529e-01, 8.63960758e-02, 2.67309427e-01, 0., 0., 0., 0.,
          0., 0., 0., 0., 0., 0., 5.36364540e-02, 5.74857354e-01,
          5.74857354e-01, 5.74857354e-01, 0., 0., 0., 0., 0.,
          2.79711168e-02, 5.03912032e-01, 5.03912032e-01, 5.03912032e-01,
          3.82086873e-01, 2.93465376e-01, 1.70494597e-02, 0., 0.,
          1.26236146e-02, 1.85883403e-01, 2.32132554e-01, 5.49215078e-01,
          5.49215078e-01, 5.49215078e-01, 3.17205563e-02, 0., 0., 0., 0.,
          0., 0., 0., 0., 0., 0., 0., 0., 0., 0., 0., 0., 0., 0., 0., 0.,
          0., 0., 0., 0., 0., 0., 0., 0., 0., 0., 0., 0., 0., 0., 0., 0.,
          0. ]
      - [ 4.09270257e-01, 4.09270257e-01, 4.09270257e-01, 9.54614878e-02,
          2.60202318e-01, 4.09270257e-01, 4.09270257e-01, 2.82700628e-01,
          4.07826826e-02, 1.58923656e-01, 1.65911511e-01, 2.18892306e-01,
          2.66472667e-01, 4.82173681e-01, 4.82173681e-01, 4.82173681e-01,
          3.54739815e-01, 1.28241787e-02, 0., 0., 8.66324529e-02,
          5.01888037e-01, 6.73576891e-01, 5.18159389e-01, 1.08091123e-01,
          0., 0., 0., 0., 7.06399381e-02, 4.28272545e-01, 7.04622030e-01,
          5.28969228e-01, 1.68102100e-01, 0., 0., 2.23531693e-01,
          4.42787319e-01, 2.46179923e-01, 1.66635355e-03, 4.34318215e-01,
          4.42787319e-01, 4.42787319e-01, 3.25922251e-01, 4.43167016e-02,
          0., 4.53414675e-03, 3.78771895e-03, 0., 1.13988020e-01,
          5.71915209e-01, 5.71915209e-01, 5.71915209e-01, 0., 0., 0., 0.,
          0., 0., 0., 0., 0., 0., 0., 0., 0., 0., 0., 0., 0., 0., 0.,
          1.25635713e-01, 2.37364069e-01, 3.56780440e-02, 2.08424288e-03,
          5.46997964e-01, 5.46997964e-01, 5.46997964e-01, 1.20123260e-01,
          9.53111276e-02, 0., 0., 0., 0., 4.88209277e-02, 6.92577183e-01,
          6.92577183e-01, 1.77134484e-01, 0., 0., 0., 0., 0., 0., 0., 0.,
          0., 0., 0., 0., 0., 0., 0., 0., 0., 0., 0., 0., 0., 0., 0., 0.,
          0., 0., 0., 0., 0., 0., 0., 0., 0., 0., 0., 0., 0., 0., 0., 0.,
          0., 0., 0., 0., 0., 0., 0., 0., 0., 0., 0., 0., 0., 0., 0. ]
      - [ 0., 0., 0., 6.96328795e-03, 9.94976163e-01, 6.99226698e-03, 0.,
          0., 0., 0., 1.32371094e-02, 5.74436545e-01, 3.68349075e-01,
          5.74436545e-01, 1.58564001e-01, 4.16154236e-01, 1.12285223e-02,
          0., 0., 1.28471432e-02, 5.31647384e-01, 2.37469450e-01,
          5.41146278e-01, 2.63709247e-01, 5.41146278e-01, 1.30002322e-02,
          0., 0., 1.77397337e-02, 5.19129515e-01, 2.61044562e-01,
          5.19129515e-01, 3.43012869e-01, 5.19129515e-01, 1.45663433e-02,
          0., 0., 0., 0., 1.28805535e-02, 9.94858265e-01, 1.29341595e-02,
          0., 0., 0., 0., 3.41648519e-01, 5.12759387e-01, 1.81653723e-01,
          5.12759387e-01, 9.18872878e-02, 5.12759387e-01, 2.18968704e-01,
          0., 0., 2.93997407e-01, 5.08867323e-01, 1.25230253e-01,
          5.08867323e-01, 1.55446425e-01, 5.08867323e-01, 3.02983880e-01,
          0., 0., 3.05066377e-01, 4.99746323e-01, 1.51707798e-01,
          4.99746323e-01, 1.60864383e-01, 4.99746323e-01, 3.22197974e-01,
          0., 0., 0., 0., 0., 0., 0., 0., 0., 0., 0., 4.09515440e-01,
          4.89692539e-01, 1.28989145e-01, 4.89692539e-01, 1.50713071e-01,
          4.89692539e-01, 2.62025148e-01, 0., 0., 3.61741722e-01,
          4.56076533e-01, 2.62449205e-01, 4.56076533e-01, 1.99095964e-01,
          4.56076533e-01, 3.63388360e-01, 0., 0., 3.41442645e-01,
          4.21306670e-01, 3.51642251e-01, 4.21306670e-01, 2.90938884e-01,
          4.21306670e-01, 3.72038633e-01, 0., 0., 0., 0., 0., 0., 0., 0.,
          0., 0., 0., 0., 0., 0., 0., 0., 0., 0., 0., 0., 0., 0., 0., 0.,
          0., 0., 0., 0., 0., 0., 0., 0., 0., 0., 0., 0., 0. ]
      - [ 4.24737185e-01, 4.24737185e-01, 2.96467125e-01, 4.24737185e-01,
          6.95376545e-02, 1.63374667e-03, 3.19063887e-02, 4.24737185e-01,
          4.24737185e-01, 3.96238089e-01, 3.96238089e-01, 3.96238089e-01,
          6.75665797e-04, 3.96238089e-01, 3.96238089e-01, 3.00863385e-01,
          1.33726865e-01, 3.20338130e-01, 2.57828563e-01, 1.39245093e-01,
          3.95588517e-01, 3.84102136e-01, 3.95588517e-01, 1.33147031e-01,
          3.44905198e-01, 3.95588517e-01, 3.95588517e-01, 1.88581660e-01,
          3.13978940e-01, 3.50987881e-01, 3.50987881e-01, 3.50987881e-01,
          3.50987881e-01, 3.50987881e-01, 3.50987881e-01, 3.50987881e-01,
          3.36343467e-01, 1.40965730e-01, 4.94378299e-01, 4.94378299e-01,
          4.94378299e-01, 1.88935980e-01, 1.20204791e-01, 8.85621011e-02,
          2.66167551e-01, 5.91715649e-02, 4.87102903e-02, 1.10087454e-01,
          2.68873721e-01, 5.38757384e-01, 5.38757384e-01, 5.38757384e-01,
          1.82198152e-01, 1.89393871e-02, 4.07106765e-02, 4.65787202e-02,
          3.32244068e-01, 5.01076877e-01, 5.01076877e-01, 5.01076877e-01,
          2.85046726e-01, 1.88015833e-01, 1.04627468e-01, 3.50856408e-02,
          6.99634701e-02, 4.31022316e-01, 4.31022316e-01, 4.30465847e-01,
          1.35054976e-01, 4.31022316e-01, 4.31022316e-01, 2.07139775e-01,
          0., 8.58137943e-03, 4.86044019e-01, 4.86044019e-01,
          4.86044019e-01, 4.86044019e-01, 2.23843917e-01, 3.26892547e-03,
          0., 0., 1.20760000e-03, 2.11022884e-01, 4.85680908e-01,
          4.85680908e-01, 4.85680908e-01, 4.85680908e-01, 8.41019899e-02,
          0., 0., 4.49646898e-02, 2.99053133e-01, 2.48005301e-01,
          2.49406695e-01, 5.53140163e-01, 5.53140163e-01, 4.09124911e-01,
          0., 0., 1.66633800e-02, 4.43990141e-01, 4.43990141e-01,
          4.43990141e-01, 4.43990141e-01, 4.43990141e-01, 9.82404947e-02,
          0., 0., 0., 0., 0., 0., 0., 0., 0., 0., 0., 0., 0., 0., 0., 0.,
          0., 0., 0., 0., 0., 0., 0., 0., 0., 0., 0., 0., 0., 0., 0., 0.,
          0., 0., 0., 0., 0. ]
      - [ 3.93864781e-01, 2.60537982e-01, 2.75760114e-01, 3.35363388e-01,
          3.93864781e-01, 3.93864781e-01, 3.37244332e-01, 7.36300871e-02,
          3.93864781e-01, 4.43069279e-01, 6.34169031e-04, 9.00614308e-04,
          0., 4.43069279e-01, 4.43069279e-01, 4.43069279e-01,
          1.18410736e-01, 4.43069279e-01, 5.75688362e-01, 5.41515656e-05,
          1.62454686e-04, 0., 5.75688362e-01, 0., 1.67046834e-04,
          5.56822815e-05, 5.75688362e-01, 4.44373816e-01, 4.44373816e-01,
          4.44373816e-01, 9.05890241e-02, 4.44373816e-01, 0.,
          3.60945286e-03, 1.20315095e-03, 4.44373816e-01, 4.19077456e-01,
          1.51563972e-01, 5.95009606e-03, 1.85582787e-02, 4.19077456e-01,
          4.19077456e-01, 4.19077456e-01, 3.07136238e-01, 4.19077456e-01,
          5.38343251e-01, 6.72873575e-03, 0., 1.09269936e-03,
          5.38343251e-01, 1.12896785e-01, 3.15470219e-01, 1.13446064e-01,
          5.38343251e-01, 5.75686753e-01, 0., 0., 1.53435627e-03,
          5.75686753e-01, 1.80377450e-03, 0., 0., 5.75686753e-01,
          4.01696116e-01, 4.78841871e-01, 4.78841871e-01, 1.09175727e-01,
          4.78841871e-01, 2.83141184e-04, 0., 0., 3.66154850e-01,
          3.91280204e-01, 3.91280204e-01, 3.73648971e-01, 1.37020215e-01,
          3.91280204e-01, 3.91280204e-01, 2.56612480e-01, 7.96993896e-02,
          3.91280204e-01, 4.08529043e-01, 1.25093907e-02, 0.,
          3.14007886e-03, 4.08529043e-01, 4.08529043e-01, 4.08529043e-01,
          4.01587754e-01, 4.08529043e-01, 5.75634599e-01, 0., 0.,
          8.84691160e-03, 5.75634599e-01, 1.04003465e-02, 0., 0.,
          5.75634599e-01, 3.44404399e-01, 5.03685892e-01, 5.03685892e-01,
          1.03837200e-01, 5.03685892e-01, 1.60573074e-03, 0., 0.,
          3.23221147e-01, 4.17259425e-01, 1.45903558e-01, 1.41387835e-01,
          1.88143328e-01, 4.17259425e-01, 4.17259425e-01, 4.17259425e-01,
          2.20518529e-01, 4.17259425e-01, 4.63526696e-01, 3.21282931e-02,
          7.49025047e-02, 4.70313393e-02, 4.63526696e-01, 4.63526696e-01,
          3.44277978e-01, 9.25218388e-02, 4.63526696e-01, 5.66534638e-01,
          4.73552942e-02, 9.86859873e-02, 6.44529909e-02, 5.66534638e-01,
          6.62866607e-02, 9.16551575e-02, 5.02797328e-02, 5.66534638e-01,
          4.38318551e-01, 4.38318551e-01, 4.38318551e-01, 1.62194848e-01,
          4.38318551e-01, 7.48438090e-02, 4.63080257e-02, 3.08639724e-02,
          4.38318551e-01 ]
      - [ 4.16265219e-01, 4.16265219e-01, 4.16265219e-01, 2.90711045e-01,
          4.16265219e-01, 9.89105329e-02, 1.77847892e-01, 5.94299547e-02,
          4.16265219e-01, 4.15621251e-01, 1.64593518e-01, 1.56408787e-01,
          3.71081755e-02, 4.15621251e-01, 4.15621251e-01, 4.15621251e-01,
          2.81444937e-01, 4.15621251e-01, 4.06770676e-01, 4.06770676e-01,
          4.06770676e-01, 2.07951233e-01, 4.06770676e-01, 1.97002709e-01,
          2.70017266e-01, 1.16882436e-01, 4.06770676e-01, 4.22198772e-01,
          5.93447946e-02, 7.57748559e-02, 1.31917773e-02, 4.22198772e-01,
          4.22198772e-01, 4.22198772e-01, 3.08359832e-01, 4.22198772e-01,
          3.86404186e-01, 3.86404186e-01, 3.86404186e-01, 2.97514141e-01,
          3.86404186e-01, 1.68002144e-01, 3.55342656e-01, 1.02611437e-01,
          3.81274194e-01, 4.84420300e-01, 7.44019896e-02, 1.68184146e-01,
          8.96485597e-02, 4.84420300e-01, 2.41513669e-01, 4.22679901e-01,
          1.11027300e-01, 4.84420300e-01, 3.81682038e-01, 3.17942709e-01,
          4.03472334e-01, 2.56161422e-01, 4.03472334e-01, 2.74199128e-01,
          4.03472334e-01, 1.57868445e-01, 3.08390230e-01, 4.87268627e-01,
          3.80607345e-03, 4.49651526e-03, 1.19132223e-03, 5.02530038e-01,
          2.15579599e-01, 4.04854953e-01, 2.05083206e-01, 5.02530038e-01,
          0., 1.44594297e-01, 5.93356490e-01, 3.40180129e-01,
          5.93356490e-01, 1.77800521e-01, 3.40679109e-01, 7.50081837e-02,
          0., 0., 8.54500160e-02, 3.96731675e-01, 1.68743774e-01,
          5.72226107e-01, 3.40677559e-01, 5.72226107e-01, 1.73686609e-01,
          0., 0., 1.25474170e-01, 5.10635912e-01, 2.96648383e-01,
          5.10635912e-01, 3.05851668e-01, 5.10635912e-01, 1.23950966e-01,
          0., 0., 0., 0., 0., 6.59736872e-01, 3.29016596e-01,
          6.58722341e-01, 1.26466140e-01, 0., 0., 0., 0., 0., 0., 0., 0.,
          0., 0., 0., 0., 0., 0., 0., 0., 0., 0., 0., 0., 0., 0., 0., 0.,
          0., 0., 0., 0., 0., 0., 0., 0., 0., 0., 0., 0., 0. ]
      - [ 3.33217829e-01, 3.26692641e-01, 9.14610177e-02, 3.13071476e-04,
          2.14357436e-01, 4.74173307e-01, 4.74173307e-01, 4.74173307e-01,
          2.20604599e-01, 3.10077965e-01, 4.40544747e-02, 4.55655530e-02,
          1.05416710e-02, 4.94095176e-01, 2.66376436e-01, 4.94095176e-01,
          4.94095176e-01, 3.02393764e-01, 4.56733167e-01, 7.20439181e-02,
          6.58217072e-02, 1.88746862e-02, 7.43493140e-01, 1.95482597e-02,
          6.57564327e-02, 7.50181675e-02, 4.59324419e-01, 4.47424501e-01,
          6.43570945e-02, 5.67005202e-02, 1.99036505e-02, 7.46246755e-01,
          2.12324336e-02, 8.09080154e-02, 8.38333368e-02, 4.62277651e-01,
          2.00385484e-03, 3.57616437e-03, 2.08558161e-02, 3.21416482e-02,
          4.93346542e-01, 5.94821334e-01, 5.94821334e-01, 2.03858539e-01,
          1.37488369e-03, 0., 0., 0., 0., 1.05865626e-02, 6.20520413e-01,
          6.20520413e-01, 4.72865075e-01, 0., 0., 0., 0., 0., 0., 0., 0.,
          0., 0., 0., 0., 0., 0., 0., 0., 0., 0., 0., 0., 3.48684262e-03,
          5.64050637e-02, 1.11868419e-01, 5.70343673e-01, 5.70343673e-01,
          5.70343673e-01, 5.21618985e-02, 0., 0., 0., 0., 0.,
          4.88209277e-02, 6.92577183e-01, 6.92577183e-01, 1.77134484e-01,
          0., 0., 0., 0., 0., 0., 0., 0., 0., 0., 0., 0., 0., 0., 0., 0.,
          0., 0., 0., 0., 0., 0., 0., 0., 0., 0., 0., 0., 0., 0., 0., 0.,
          0., 0., 0., 0., 0., 0., 0., 0., 0., 0., 0., 0., 0., 0., 0., 0.,
          0., 0., 0., 0., 0., 0., 0. ]
      - [ 3.90258789e-01, 3.90258789e-01, 3.90258789e-01, 3.17320116e-02,
          3.78682852e-01, 3.90258789e-01, 3.90258789e-01, 2.81115949e-01,
          1.05630904e-01, 4.27198499e-01, 1.79582983e-01, 1.55833498e-01,
          0., 5.07128119e-01, 2.38900289e-01, 5.07128119e-01,
          3.21419924e-01, 2.84886897e-01, 4.59752917e-01, 3.50209996e-02,
          3.91358063e-02, 0., 7.43439853e-01, 0., 4.19729464e-02,
          3.55896987e-02, 4.71929580e-01, 4.45832461e-01, 3.19074355e-02,
          3.22489291e-02, 0., 7.45096564e-01, 0., 4.72653322e-02,
          4.43642959e-02, 4.82044876e-01, 2.68294871e-01, 4.39898103e-01,
          2.21828789e-01, 0., 4.38251287e-01, 4.39898103e-01,
          4.39898103e-01, 3.16655993e-01, 3.93635370e-02, 2.57974640e-02,
          1.53741110e-02, 4.30898834e-03, 0., 1.67863637e-01,
          5.67226350e-01, 5.67226350e-01, 5.67226350e-01, 2.88649666e-04,
          0., 0., 0., 0., 0., 0., 0., 0., 0., 0., 0., 0., 0., 0., 0., 0.,
          0., 0., 1.36947259e-01, 2.85700411e-01, 1.04273641e-02, 0.,
          5.39304435e-01, 5.39304435e-01, 5.39304435e-01, 1.17242754e-01,
          8.85014385e-02, 0., 0., 0., 0., 6.44802153e-02, 7.03060389e-01,
          7.03060389e-01, 1.53708672e-02, 0., 0., 0., 0., 0., 0., 0., 0.,
          0., 0., 0., 0., 0., 0., 0., 0., 0., 0., 0., 0., 0., 0., 0., 0.,
          0., 0., 0., 0., 0., 0., 0., 0., 0., 0., 0., 0., 0., 0., 0., 0.,
          0., 0., 0., 0., 0., 0., 0., 0., 0., 0., 0., 0., 0., 0., 0. ]
      - [ 4.07416642e-01, 4.07416642e-01, 4.07416642e-01, 0., 0., 0.,
          4.07416642e-01, 4.07416642e-01, 4.07416642e-01, 4.07416642e-01,
          4.07416642e-01, 4.07416642e-01, 0., 0., 0., 4.07416642e-01,
          4.07416642e-01, 4.07416642e-01, 4.23406214e-01, 4.23406214e-01,
          4.23406214e-01, 0., 0., 0., 3.15287679e-01, 4.23406214e-01,
          4.23406214e-01, 3.05267364e-01, 6.51965559e-01, 6.51965559e-01,
          0., 0., 0., 0., 0., 2.24019721e-01, 5.55638134e-01,
          1.87501565e-01, 4.05754447e-02, 0., 5.57244956e-01, 0.,
          3.53801735e-02, 1.63104042e-01, 5.57244956e-01, 5.64096749e-01,
          1.50897220e-01, 3.62720974e-02, 0., 5.64096749e-01, 0.,
          2.83311456e-02, 1.21915445e-01, 5.64096749e-01, 5.74965894e-01,
          1.74214274e-01, 8.83469656e-02, 0., 5.74965894e-01, 0.,
          1.52948331e-02, 7.16439337e-02, 5.38112104e-01, 1.12183593e-01,
          1.43003374e-01, 1.17572792e-01, 0., 9.69639719e-01, 0., 0., 0.,
          5.71608767e-02, 0., 0., 0., 0., 9.95024860e-01, 0., 0., 0., 0.,
          0., 0., 0., 0., 9.95024860e-01, 0., 0., 0., 0., 0., 0., 0., 0.,
          9.95024860e-01, 0., 0., 0., 0., 0., 0., 0., 0., 9.95024860e-01,
          0., 0., 0., 0., 0., 0., 0., 0., 0., 0., 0., 0., 0., 0., 0., 0.,
          0., 0., 0., 0., 0., 0., 0., 0., 0., 0., 0., 0., 0., 0., 0., 0.,
          0., 0., 0., 0., 0., 0., 0., 0. ]
      - [ 4.32638556e-01, 5.32855652e-02, 1.92927450e-01, 7.23609552e-02,
          4.32638556e-01, 1.20421067e-01, 4.32638556e-01, 4.32638556e-01,
          4.32638556e-01, 5.69634140e-01, 8.61532837e-02, 1.15914434e-01,
          1.97641691e-03, 5.69634140e-01, 0., 0., 0., 5.69634140e-01,
          4.05236393e-01, 4.05236393e-01, 4.05236393e-01, 1.66103411e-02,
          4.05236393e-01, 4.05236393e-01, 9.86318812e-02, 2.54623424e-02,
          4.05236393e-01, 4.16808605e-01, 2.26869464e-01, 6.18244633e-02,
          2.02697772e-03, 2.68128783e-01, 4.16808605e-01, 4.16808605e-01,
          4.16808605e-01, 4.16808605e-01, 4.00074869e-01, 9.28580612e-02,
          4.00074869e-01, 1.36033937e-01, 4.00074869e-01, 9.22824070e-02,
          4.00074869e-01, 4.00074869e-01, 4.00074869e-01, 5.75687468e-01,
          0., 0., 0., 5.75687468e-01, 0., 6.16191537e-04, 1.70485291e-03,
          5.75687468e-01, 4.41901356e-01, 4.36897904e-01, 3.58466268e-01,
          2.99583171e-02, 4.41901356e-01, 2.99052775e-01, 6.89976243e-03,
          1.93815402e-04, 4.41901356e-01, 3.82446527e-01, 3.82446527e-01,
          1.91517130e-01, 7.59167224e-03, 3.82446527e-01, 3.82446527e-01,
          3.82446527e-01, 2.86095500e-01, 3.82446527e-01, 2.17718765e-01,
          1.75431490e-01, 4.11918014e-01, 2.39549190e-01, 4.11918014e-01,
          1.09276451e-01, 4.11918014e-01, 4.11918014e-01, 4.11918014e-01,
          5.68716466e-01, 0., 0., 0., 5.68716466e-01, 1.75953899e-02,
          9.89149436e-02, 1.17949545e-01, 5.68716466e-01, 4.94704247e-01,
          3.41839015e-01, 3.72104287e-01, 7.44633228e-02, 4.94704247e-01,
          1.38130912e-03, 0., 0., 4.94704247e-01, 3.90133381e-01,
          3.90133381e-01, 3.84693325e-01, 9.41017121e-02, 3.90133381e-01,
          3.90133381e-01, 2.33843520e-01, 1.53477415e-01, 3.90133381e-01,
          5.07282419e-03, 3.33725750e-01, 4.65010643e-01, 4.65010643e-01,
          7.80961961e-02, 1.35033242e-02, 4.65010643e-01, 4.65010643e-01,
          1.12853050e-01, 2.62079924e-01, 5.35778981e-03, 1.60733685e-02,
          9.09140799e-04, 5.03951371e-01, 7.31197558e-03, 5.03951371e-01,
          5.03951371e-01, 4.05016780e-01, 4.15674508e-01, 3.63188684e-01,
          4.15674508e-01, 4.15674508e-01, 4.15674508e-01, 3.85249383e-03,
          4.69532912e-04, 1.56510985e-04, 4.15674508e-01, 3.76516253e-01,
          3.76516253e-01, 3.35164160e-01, 3.69223714e-01, 3.76516253e-01,
          3.76516253e-01, 1.77567706e-01, 8.49963650e-02, 3.76516253e-01 ]
      - [ 1.62195414e-01, 2.07978144e-01, 8.37271586e-02, 3.29940133e-02,
          2.07926750e-01, 2.64485836e-01, 6.27336860e-01, 6.27336860e-01,
          1.25642329e-01, 4.03559774e-01, 2.45130166e-01, 1.47894204e-01,
          2.43358672e-01, 4.03559774e-01, 2.01199248e-01, 4.03559774e-01,
          4.03559774e-01, 4.03559774e-01, 4.21832055e-01, 4.21832055e-01,
          3.55223864e-01, 3.97089906e-02, 4.21832055e-01, 4.21832055e-01,
          3.90841931e-01, 3.99364829e-02, 4.36360277e-02, 1.23887606e-01,
          4.63991642e-01, 3.24386835e-01, 2.27441639e-02, 4.63991642e-01,
          4.63991642e-01, 4.63991642e-01, 1.14538528e-01, 1.04512903e-03,
          1.37654617e-01, 2.27884442e-01, 3.07951868e-01, 4.09697771e-01,
          4.23869848e-01, 4.23869848e-01, 4.23869848e-01, 2.96582818e-01,
          1.87725469e-01, 4.23878044e-01, 1.87119618e-01, 2.73509532e-01,
          4.23878044e-01, 4.23878044e-01, 1.60446063e-01, 1.55335709e-01,
          3.42610270e-01, 4.23878044e-01, 4.22932118e-01, 4.22932118e-01,
          1.07059658e-01, 7.80222937e-03, 4.22932118e-01, 4.22932118e-01,
          4.22932118e-01, 2.55210102e-02, 2.98736185e-01, 6.79764375e-02,
          3.08300048e-01, 4.48238067e-02, 6.77778386e-04, 4.92440671e-01,
          5.63768387e-01, 5.63768387e-01, 1.20486975e-01, 2.56165280e-03,
          1.06972677e-03, 9.74511169e-03, 9.11991969e-02, 2.06335828e-01,
          5.60271561e-01, 5.60271561e-01, 5.60271561e-01, 4.12896536e-02,
          0., 8.74160603e-02, 2.94738244e-02, 2.77489930e-01,
          6.51160955e-01, 6.51160955e-01, 2.17741132e-01, 8.19936022e-02,
          3.16765439e-03, 7.63062239e-02, 4.22093086e-02, 0.,
          6.07188966e-04, 1.98369995e-02, 5.91396928e-01, 5.91396928e-01,
          5.35885096e-01, 2.62474902e-02, 6.75055310e-02, 0., 0., 0., 0.,
          5.71030438e-01, 5.71030438e-01, 5.71030438e-01, 1.26770347e-01,
          0., 0., 0., 0., 0., 0., 0., 0., 0., 0., 0., 0., 0., 0., 0., 0.,
          0., 0., 0., 0., 0., 0., 0., 0., 0., 0., 0., 0., 0., 0., 0., 0.,
          0., 0., 0., 0., 0. ]
      - [ 4.98048872e-01, 4.98048872e-01, 2.21986294e-01, 8.91995430e-03,
          3.30492079e-01, 3.90957743e-02, 8.49434733e-02, 2.89034963e-01,
          4.98048872e-01, 3.87870103e-01, 4.49019641e-01, 4.49019641e-01,
          1.76374475e-03, 1.13946505e-01, 4.49019641e-01, 4.49019641e-01,
          1.10562086e-01, 1.15699239e-01, 3.32778692e-01, 3.32778692e-01,
          3.32778692e-01, 3.32778692e-01, 3.32778692e-01, 3.32778692e-01,
          3.32778692e-01, 3.32778692e-01, 3.32778692e-01, 1.59027398e-01,
          4.36084032e-01, 4.36084032e-01, 3.64668041e-01, 1.09609380e-01,
          4.61111329e-02, 4.36084032e-01, 4.36084032e-01, 2.50107735e-01,
          3.67258817e-01, 3.67258817e-01, 3.67258817e-01, 9.26457196e-02,
          3.67258817e-01, 3.67258817e-01, 3.67258817e-01, 2.08792612e-01,
          3.67258817e-01, 1.99285299e-01, 3.66818666e-01, 3.66818666e-01,
          1.48115918e-01, 3.56856525e-01, 3.66818666e-01, 3.66818666e-01,
          3.66818666e-01, 3.66818666e-01, 1.64534971e-01, 3.74581039e-01,
          3.74581039e-01, 3.59485418e-01, 2.34625548e-01, 3.74581039e-01,
          3.74581039e-01, 3.74581039e-01, 2.88708031e-01, 4.62990254e-02,
          2.80858994e-01, 4.19988871e-01, 4.19988871e-01, 4.19988871e-01,
          1.51561931e-01, 4.19988871e-01, 4.19988871e-01, 9.92714316e-02,
          3.72625858e-01, 3.72625858e-01, 3.55344415e-01, 1.85978845e-01,
          3.72625858e-01, 3.72625858e-01, 3.72625858e-01, 2.51986444e-01,
          2.78697431e-01, 1.11693971e-01, 3.74462187e-01, 3.74462187e-01,
          3.74462187e-01, 3.74462187e-01, 3.74462187e-01, 3.74462187e-01,
          3.34396213e-01, 1.75017178e-01, 2.58757502e-01, 2.96491712e-01,
          3.64753455e-01, 3.64753455e-01, 3.64753455e-01, 2.07900450e-01,
          3.64753455e-01, 3.64753455e-01, 3.64753455e-01, 3.48973811e-01,
          3.48973811e-01, 3.48973811e-01, 2.43255362e-01, 3.48973811e-01,
          2.91309476e-01, 3.48973811e-01, 3.48973811e-01, 3.48973811e-01,
          2.77447671e-01, 2.08929107e-01, 1.99771971e-01, 4.49288934e-01,
          4.67904627e-01, 4.67904627e-01, 3.89871538e-01, 1.05809003e-01,
          1.78503856e-01, 9.53706633e-03, 3.52231681e-01, 4.39985484e-01,
          3.98183554e-01, 1.98225260e-01, 4.39985484e-01, 4.39985484e-01,
          3.04421693e-01, 1.30167259e-02, 2.24330693e-01, 3.97735536e-01,
          3.97735536e-01, 3.97735536e-01, 1.89638436e-01, 1.44854844e-01,
          3.97735536e-01, 3.97735536e-01, 3.12712431e-01, 3.62099618e-01,
          3.76640141e-01, 2.58044571e-01, 2.21126378e-01, 3.76640141e-01,
          3.76640141e-01, 3.76640141e-01, 3.15067917e-01, 2.87989736e-01 ]
      - [ 0., 0., 0., 0., 0., 0., 0., 0., 0., 0., 0., 0., 0., 0., 0., 0.,
          0., 0., 1.30078822e-01, 6.14635170e-01, 6.14635170e-01,
          1.45044262e-02, 4.48343344e-03, 2.34498903e-01, 4.05158430e-01,
          4.48790789e-02, 1.47275277e-03, 2.96989948e-01, 4.68810320e-01,
          4.68810320e-01, 1.87003370e-02, 6.80169910e-02, 4.68810320e-01,
          4.68810320e-01, 1.51225626e-01, 1.16882129e-02, 5.75688422e-01,
          0., 0., 0., 5.75688422e-01, 0., 0., 0., 5.75688422e-01,
          5.75688422e-01, 0., 0., 0., 5.75688422e-01, 0., 0., 0.,
          5.75688422e-01, 5.34392178e-01, 1.64621308e-01, 3.01253408e-01,
          3.43629229e-03, 5.34392178e-01, 4.21470851e-02, 1.21497013e-01,
          5.94533011e-02, 5.34392178e-01, 3.67623687e-01, 3.67623687e-01,
          3.67623687e-01, 1.29399747e-02, 3.67623687e-01, 3.67623687e-01,
          3.67623687e-01, 2.23896250e-01, 3.67623687e-01, 4.92501497e-01,
          0., 0., 0., 7.12611020e-01, 0., 0., 0., 4.92457598e-01,
          4.92420495e-01, 0., 0., 0., 7.12658584e-01, 0., 0., 0.,
          4.92469192e-01, 4.88924533e-01, 1.44075099e-02, 1.62869005e-03,
          0., 7.26899028e-01, 0., 1.03223696e-03, 7.98045658e-03,
          4.74383891e-01, 3.08084220e-01, 1.25504538e-01, 1.24957571e-02,
          3.77459079e-03, 5.99860489e-01, 5.99860489e-01, 2.88298219e-01,
          5.51196858e-02, 2.78124869e-01, 0., 0., 0., 0., 0., 0., 0., 0.,
          0., 0., 0., 0., 0., 0., 0., 0., 0., 0., 0., 0., 0., 0., 0., 0.,
          0., 0., 0., 0., 0., 0., 0., 0., 0., 0., 0., 0. ]
      - [ 4.98048872e-01, 4.98048872e-01, 2.21986294e-01, 8.91995430e-03,
          3.30492079e-01, 3.90957743e-02, 8.49434733e-02, 2.89034963e-01,
          4.98048872e-01, 3.88246447e-01, 4.48049545e-01, 4.48049545e-01,
          1.76545605e-03, 1.27088964e-01, 4.48049545e-01, 4.48049545e-01,
          1.10582396e-01, 1.15811490e-01, 3.32778692e-01, 3.32778692e-01,
          3.32778692e-01, 3.32778692e-01, 3.32778692e-01, 3.32778692e-01,
          3.32778692e-01, 3.32778692e-01, 3.32778692e-01, 1.60353348e-01,
          4.35606152e-01, 4.35606152e-01, 3.68316054e-01, 1.03689745e-01,
          4.33879048e-02, 4.35606152e-01, 4.35606152e-01, 2.50267655e-01,
          3.67371738e-01, 3.67371738e-01, 3.67371738e-01, 9.33223888e-02,
          3.67371738e-01, 3.67371738e-01, 3.67371738e-01, 2.07091391e-01,
          3.67371738e-01, 2.06689447e-01, 3.76414746e-01, 3.76414746e-01,
          1.52089044e-01, 2.83300877e-01, 3.76414746e-01, 3.76414746e-01,
          3.76414746e-01, 3.76414746e-01, 1.68342382e-01, 3.72482628e-01,
          3.72482628e-01, 3.72482628e-01, 2.05819264e-01, 3.72482628e-01,
          3.72482628e-01, 3.72482628e-01, 3.05152863e-01, 4.27979268e-02,
          2.86504775e-01, 4.20179039e-01, 4.20179039e-01, 4.20179039e-01,
          1.42451733e-01, 4.20179039e-01, 4.20179039e-01, 9.40284058e-02,
          3.72791737e-01, 3.72791737e-01, 3.58588129e-01, 1.87676534e-01,
          3.72791737e-01, 3.72791737e-01, 3.72791737e-01, 2.41872922e-01,
          2.81241506e-01, 1.19059682e-01, 3.81660193e-01, 3.81660193e-01,
          3.81660193e-01, 3.81660193e-01, 3.81660193e-01, 3.81660193e-01,
          2.66011268e-01, 1.93035230e-01, 2.49974608e-01, 2.77136594e-01,
          3.66184890e-01, 3.66184890e-01, 3.66184890e-01, 2.29131699e-01,
          3.66184890e-01, 3.66184890e-01, 3.66184890e-01, 3.47030193e-01,
          3.47030193e-01, 3.47030193e-01, 2.41856188e-01, 3.47030193e-01,
          3.08267295e-01, 3.47030193e-01, 3.47030193e-01, 3.47030193e-01,
          2.77447671e-01, 2.08929107e-01, 1.99771971e-01, 4.49288934e-01,
          4.67904627e-01, 4.67904627e-01, 3.89871538e-01, 1.05809003e-01,
          1.78503856e-01, 9.53622069e-03, 3.52200419e-01, 4.39946651e-01,
          3.98148268e-01, 1.99172139e-01, 4.39946651e-01, 4.39946651e-01,
          3.04054588e-01, 1.30155711e-02, 2.26011008e-01, 3.97546411e-01,
          3.97546411e-01, 3.97546411e-01, 1.95393845e-01, 1.47275507e-01,
          3.97546411e-01, 3.97546411e-01, 3.07998419e-01, 3.40907514e-01,
          3.76224279e-01, 2.58599281e-01, 2.21601725e-01, 3.76224279e-01,
          3.76224279e-01, 3.76224279e-01, 3.61452490e-01, 2.59259880e-01 ]
      - [ 0., 1.06071524e-01, 5.19025445e-01, 3.18876386e-01,
          5.19025445e-01, 2.58587748e-01, 5.19025445e-01, 8.27862173e-02,
          0., 0., 1.23593166e-01, 5.12003958e-01, 3.60798568e-01,
          5.12003958e-01, 2.25547314e-01, 5.12003958e-01, 1.10090636e-01,
          0., 0., 1.03256278e-01, 5.18029273e-01, 2.26573974e-01,
          5.18029273e-01, 3.39430928e-01, 5.18029273e-01, 1.12037726e-01,
          0., 0., 7.38025531e-02, 5.21681726e-01, 2.54604578e-01,
          5.21681726e-01, 3.13010544e-01, 5.21681726e-01, 1.00441314e-01,
          0., 0., 4.10199374e-01, 4.82725710e-01, 1.19748935e-01,
          4.82725710e-01, 1.02530137e-01, 4.82725710e-01, 3.20921272e-01,
          0., 0., 4.00633901e-01, 4.74638849e-01, 1.78831130e-01,
          4.74638849e-01, 1.22535534e-01, 4.74638849e-01, 3.34529549e-01,
          0., 0., 3.43739390e-01, 4.76931244e-01, 1.20692760e-01,
          4.76931244e-01, 1.71470433e-01, 4.76931244e-01, 3.88227612e-01,
          0., 0., 3.10567141e-01, 4.84182179e-01, 1.03145435e-01,
          4.84182179e-01, 1.20677643e-01, 4.84182179e-01, 4.12568688e-01,
          0., 0., 3.66450578e-01, 4.62677926e-01, 2.95422494e-01,
          4.62677926e-01, 2.32865617e-01, 4.62677926e-01, 2.78171122e-01,
          0., 0., 3.31218541e-01, 4.31555361e-01, 3.72932345e-01,
          4.31555361e-01, 3.32794070e-01, 4.31555361e-01, 2.78267980e-01,
          0., 0., 2.94826776e-01, 4.35624033e-01, 3.27407986e-01,
          4.35624033e-01, 3.54587048e-01, 4.35624033e-01, 3.26332241e-01,
          0., 0., 2.72135466e-01, 4.63931412e-01, 2.19607890e-01,
          4.63931412e-01, 2.95293480e-01, 4.63931412e-01, 3.74413431e-01,
          0., 0., 0., 0., 0., 0., 0., 0., 0., 0., 0., 0., 0., 0., 0., 0.,
          0., 0., 0., 0., 0., 0., 0., 0., 0., 0., 0., 0., 0., 0., 0., 0.,
          0., 0., 0., 0., 0. ]
      - [ 4.16778773e-01, 4.16778773e-01, 4.16778773e-01, 3.02678049e-01,
          4.16778773e-01, 8.36071000e-02, 1.64557636e-01, 4.03792895e-02,
          4.16778773e-01, 4.12595600e-01, 1.76479965e-01, 1.96994707e-01,
          8.17082524e-02, 4.12595600e-01, 4.12595600e-01, 4.12595600e-01,
          2.60910541e-01, 4.12595600e-01, 4.04058456e-01, 4.04058456e-01,
          4.04058456e-01, 2.19891265e-01, 4.04058456e-01, 1.99725479e-01,
          2.83651233e-01, 1.04627483e-01, 4.04058456e-01, 4.29384530e-01,
          4.59633395e-02, 5.77565469e-02, 1.35422098e-02, 4.29384530e-01,
          4.29384530e-01, 4.29384530e-01, 2.61196345e-01, 4.29384530e-01,
          3.80155027e-01, 3.80155027e-01, 3.80155027e-01, 3.06727797e-01,
          3.80155027e-01, 2.31384367e-01, 3.75730425e-01, 9.24321786e-02,
          3.47552806e-01, 3.70899916e-01, 9.03263167e-02, 3.70899916e-01,
          3.70899916e-01, 3.70899916e-01, 3.70899916e-01, 3.70899916e-01,
          1.58645630e-01, 3.70899916e-01, 3.62412155e-01, 3.31133813e-01,
          3.62412155e-01, 3.57923388e-01, 3.62412155e-01, 3.62412155e-01,
          3.62412155e-01, 7.95544982e-02, 3.09158146e-01, 4.69352961e-01,
          3.75131820e-03, 4.43182699e-03, 1.17418345e-03, 4.69352961e-01,
          3.73189688e-01, 4.00843382e-01, 1.85619041e-01, 4.69352961e-01,
          0., 1.44861311e-01, 5.91333807e-01, 3.40808332e-01,
          5.91333807e-01, 1.86043769e-01, 3.42563450e-01, 7.51466975e-02,
          0., 0., 9.83569622e-02, 4.51803237e-01, 2.63203204e-01,
          4.83448952e-01, 4.57456380e-01, 4.83448952e-01, 1.88103899e-01,
          0., 0., 1.23497210e-01, 4.88736212e-01, 3.00675958e-01,
          4.88736212e-01, 4.88736212e-01, 4.15335774e-01, 1.91833284e-02,
          0., 0., 0., 0., 0., 5.92280328e-01, 5.92280328e-01,
          5.40393710e-01, 2.16467381e-02, 0., 0., 0., 0., 0., 0., 0., 0.,
          0., 0., 0., 0., 0., 0., 0., 0., 0., 0., 0., 0., 0., 0., 0., 0.,
          0., 0., 0., 0., 0., 0., 0., 0., 0., 0., 0., 0., 0. ]
      - [ 4.17230695e-01, 4.17230695e-01, 4.17230695e-01, 2.60740250e-01,
          4.17230695e-01, 7.87307844e-02, 1.15066655e-01, 1.94937393e-01,
          4.17230695e-01, 3.80343944e-01, 2.74581730e-01, 2.24067792e-01,
          5.12794033e-02, 3.80343944e-01, 3.80343944e-01, 3.80343944e-01,
          3.80343944e-01, 3.80343944e-01, 3.93474907e-01, 3.93474907e-01,
          3.93474907e-01, 1.98507667e-01, 3.93474907e-01, 1.04358226e-01,
          3.79337400e-01, 1.66625232e-01, 3.93474907e-01, 4.55934376e-01,
          9.33543891e-02, 7.33041540e-02, 1.56469978e-02, 4.55934376e-01,
          1.82818547e-01, 4.55934376e-01, 3.40859443e-01, 4.55934376e-01,
          3.65061313e-01, 3.65061313e-01, 3.65061313e-01, 3.20190787e-01,
          3.65061313e-01, 3.65061313e-01, 3.65061313e-01, 7.04453811e-02,
          2.98746228e-01, 3.74446809e-01, 1.34860069e-01, 3.12581867e-01,
          7.24698156e-02, 4.15357441e-01, 4.15357441e-01, 4.15357441e-01,
          2.10728601e-01, 4.15357441e-01, 3.64184290e-01, 3.84548515e-01,
          3.84548515e-01, 2.32469529e-01, 3.84548515e-01, 3.84548515e-01,
          3.84548515e-01, 1.36379376e-01, 2.26933956e-01, 4.21844244e-01,
          1.25609851e-02, 1.17736738e-02, 0., 4.36530173e-01,
          4.25620824e-01, 4.36530173e-01, 2.54089922e-01, 4.36530173e-01,
          0., 2.44348601e-01, 5.74008167e-01, 3.69080275e-01,
          5.74008167e-01, 1.87129825e-01, 3.15658391e-01, 6.86524808e-02,
          0., 0., 1.15888864e-01, 4.00167257e-01, 1.39187306e-01,
          4.95319605e-01, 4.95319605e-01, 4.95319605e-01, 2.57081836e-01,
          0., 0., 2.07373396e-01, 4.72768754e-01, 2.68739909e-01,
          4.72768754e-01, 4.72768754e-01, 4.55733597e-01, 4.27679382e-02,
          0., 0., 0., 0., 0., 5.66647232e-01, 5.66647232e-01,
          5.66647232e-01, 1.76279441e-01, 0., 0., 0., 0., 0., 0., 0., 0.,
          0., 0., 0., 0., 0., 0., 0., 0., 0., 0., 0., 0., 0., 0., 0., 0.,
          0., 0., 0., 0., 0., 0., 0., 0., 0., 0., 0., 0., 0. ]
      - [ 0., 0., 0., 0., 9.95024860e-01, 0., 0., 0., 0., 7.17495829e-02,
          4.63496536e-01, 5.69356859e-01, 2.74542034e-01, 5.69356859e-01,
          9.10254137e-04, 6.06101081e-02, 1.46564275e-01, 1.59606278e-01,
          3.87386471e-01, 2.15338573e-01, 3.87386471e-01, 3.87386471e-01,
          3.87386471e-01, 1.69437453e-01, 1.43667817e-01, 3.87386471e-01,
          3.87386471e-01, 4.34677124e-01, 4.34677124e-01, 4.16306891e-02,
          7.71323815e-02, 4.34677124e-01, 4.34677124e-01, 1.92102447e-01,
          7.96938092e-02, 4.34677124e-01, 0., 0., 0., 0., 0., 0., 0., 0.,
          0., 1.22988289e-02, 2.23834798e-01, 5.60949743e-01,
          5.60949743e-01, 5.60949743e-01, 0., 0., 0., 1.22988289e-02,
          1.17246769e-01, 2.43313946e-02, 5.21443963e-01, 5.35355806e-01,
          5.35355806e-01, 3.19969088e-01, 7.56163150e-02, 3.88993025e-02,
          1.59962997e-01, 2.10736111e-01, 4.22501564e-02, 8.07291195e-02,
          2.54255742e-01, 6.06908321e-01, 6.06908321e-01, 3.35951269e-01,
          3.04567870e-02, 1.61603883e-01, 0., 0., 0., 0., 0., 0., 0., 0.,
          0., 0., 0., 0., 0., 0., 0., 0., 0., 0., 0., 0., 0., 0., 0., 0.,
          0., 0., 0., 0., 0., 0., 0., 0., 0., 0., 0., 0., 0., 0., 0., 0.,
          0., 0., 0., 0., 0., 0., 0., 0., 0., 0., 0., 0., 0., 0., 0., 0.,
          0., 0., 0., 0., 0., 0., 0., 0., 0., 0., 0., 0., 0., 0., 0., 0. ]
      - [ 0., 0., 0., 0., 0., 0., 0., 0., 0., 0., 0., 0., 0., 0., 0., 0.,
          0., 0., 0., 0., 0., 0., 0., 0., 0., 0., 0., 0., 0., 0., 0., 0.,
          0., 0., 0., 0., 0., 0., 0., 0., 9.95024860e-01, 0., 0., 0., 0.,
          0., 0., 0., 0., 9.95024860e-01, 0., 0., 0., 0., 0., 0., 0., 0.,
          9.95024860e-01, 0., 0., 0., 0., 0., 0., 0., 0., 9.95024860e-01,
          0., 0., 0., 0., 0., 0., 0., 0., 9.95024860e-01, 0., 0., 0., 0.,
          0., 0., 0., 0., 9.95024860e-01, 0., 0., 0., 0., 0., 0., 0., 0.,
          9.95024860e-01, 0., 0., 0., 0., 0., 0., 0., 0., 9.95024860e-01,
          0., 0., 0., 0., 0., 0., 0., 0., 0., 0., 0., 0., 0., 0., 0., 0.,
          0., 0., 0., 0., 0., 0., 0., 0., 0., 0., 0., 0., 0., 0., 0., 0.,
          0., 0., 0., 0., 0., 0., 0., 0. ]
      - [ 3.98220807e-01, 3.98220807e-01, 3.32295537e-01, 1.35065258e-01,
          3.98220807e-01, 1.03293285e-01, 2.90158987e-01, 3.71722817e-01,
          3.98220807e-01, 4.33393568e-01, 3.74921441e-01, 2.61547089e-01,
          1.15269259e-01, 4.33393568e-01, 1.00260124e-01, 2.70903409e-01,
          3.55640411e-01, 4.33393568e-01, 4.13051218e-01, 3.62062633e-01,
          2.50657707e-01, 1.04075186e-01, 4.13051218e-01, 1.14654750e-01,
          3.09083343e-01, 4.13051218e-01, 4.13051218e-01, 3.80898058e-01,
          3.80898058e-01, 3.07349235e-01, 1.24328509e-01, 3.80898058e-01,
          1.43750489e-01, 3.74423474e-01, 3.80898058e-01, 3.80898058e-01,
          4.42480035e-02, 1.49971738e-01, 5.11222541e-01, 3.34875256e-01,
          5.11222541e-01, 2.38527164e-01, 5.11222541e-01, 1.24836668e-01,
          4.21740972e-02, 4.80296016e-02, 1.23847462e-01, 5.23772955e-01,
          2.79298306e-01, 5.23772955e-01, 2.43270978e-01, 5.23772955e-01,
          1.21399678e-01, 4.67287973e-02, 4.56729010e-02, 1.20702125e-01,
          5.21606326e-01, 2.52067745e-01, 5.21606326e-01, 2.71568477e-01,
          5.21606326e-01, 1.49937093e-01, 4.63418439e-02, 3.94941270e-02,
          1.43975556e-01, 4.93476123e-01, 2.95755684e-01, 4.93476123e-01,
          3.46300483e-01, 4.93476123e-01, 1.82034791e-01, 4.11631539e-02,
          0., 2.95321673e-01, 5.28030694e-01, 8.47878307e-02,
          5.28030694e-01, 8.53683427e-02, 5.28030694e-01, 2.37877995e-01,
          0., 0., 2.99554855e-01, 5.03511071e-01, 1.63391232e-01,
          5.03511071e-01, 1.87334433e-01, 5.03511071e-01, 2.87883818e-01,
          0., 0., 2.71148741e-01, 4.67035592e-01, 2.12028101e-01,
          4.67035592e-01, 3.17374408e-01, 4.67035592e-01, 3.48947436e-01,
          0., 0., 2.70971477e-01, 4.17822838e-01, 3.09178382e-01,
          4.17822838e-01, 4.17822838e-01, 4.17822838e-01, 3.58476758e-01,
          0., 0., 0., 0., 0., 0., 0., 0., 0., 0., 0., 0., 0., 0., 0., 0.,
          0., 0., 0., 0., 0., 0., 0., 0., 0., 0., 0., 0., 0., 0., 0., 0.,
          0., 0., 0., 0., 0. ]
      - [ 1.61790386e-01, 3.69907975e-01, 1.62868589e-01, 7.98663944e-02,
          1.53725803e-01, 3.24897707e-01, 5.68292499e-01, 5.68292499e-01,
          1.52674437e-01, 3.58865857e-01, 2.05040574e-01, 1.24612883e-01,
          2.42173046e-01, 4.31279331e-01, 8.17428082e-02, 4.31279331e-01,
          4.31279331e-01, 4.31279331e-01, 4.07284647e-01, 4.07284647e-01,
          4.07284647e-01, 5.00197820e-02, 4.07284647e-01, 4.07284647e-01,
          4.00539517e-01, 2.36226376e-02, 5.50950877e-02, 9.99729037e-02,
          4.75918859e-01, 2.75843501e-01, 4.28047851e-02, 4.75918859e-01,
          4.75918859e-01, 4.75918859e-01, 3.65071222e-02, 1.45642797e-03,
          7.88076743e-02, 2.52435863e-01, 2.95981109e-01, 4.28329319e-01,
          4.29056734e-01, 4.29056734e-01, 4.29056734e-01, 2.69026965e-01,
          1.73390269e-01, 4.05402631e-01, 1.98866755e-01, 2.95063406e-01,
          4.05402631e-01, 4.05402631e-01, 1.92668915e-01, 1.66650742e-01,
          3.83458763e-01, 4.05402631e-01, 4.10687417e-01, 4.10687417e-01,
          2.15960577e-01, 1.29800597e-02, 4.10687417e-01, 4.10687417e-01,
          4.10687417e-01, 1.18237354e-01, 3.02967399e-01, 1.08579092e-01,
          2.44657859e-01, 1.68900058e-01, 4.64927126e-03, 5.42479157e-01,
          5.42479157e-01, 5.42479157e-01, 1.07394993e-01, 1.50708354e-03,
          0., 8.27274099e-03, 1.38915390e-01, 2.75860608e-01,
          5.46537519e-01, 5.46537519e-01, 5.46537519e-01, 5.44737615e-02,
          0., 8.74919146e-02, 1.71248522e-02, 2.80886352e-01,
          6.46040857e-01, 6.46040857e-01, 2.42820710e-01, 8.66480023e-02,
          8.90719891e-03, 7.36074746e-02, 4.38173302e-02, 0.,
          4.05271305e-03, 3.37462649e-02, 5.83397925e-01, 5.83397925e-01,
          5.49563825e-01, 6.49052188e-02, 6.44989684e-02, 0., 0., 0., 0.,
          4.82984602e-01, 5.78917205e-01, 5.78917205e-01, 3.01089406e-01,
          0., 0., 0., 0., 0., 0., 0., 0., 0., 0., 0., 0., 0., 0., 0., 0.,
          0., 0., 0., 0., 0., 0., 0., 0., 0., 0., 0., 0., 0., 0., 0., 0.,
          0., 0., 0., 0., 0. ]
      - [ 4.37128365e-01, 8.78412500e-02, 1.59331616e-02, 2.99146399e-02,
          4.37128365e-01, 4.37128365e-01, 4.37128365e-01, 1.77095249e-01,
          4.37128365e-01, 4.92563069e-01, 2.68304837e-03, 8.04914534e-03,
          6.42226413e-02, 4.92563069e-01, 3.27217430e-01, 3.69224608e-01,
          1.40109777e-01, 4.92563069e-01, 5.72415113e-01, 2.86203879e-03,
          8.58611520e-03, 6.88562170e-02, 5.72415113e-01, 7.98305199e-02,
          9.99385957e-03, 3.33128683e-03, 5.72415113e-01, 3.63097101e-01,
          5.04950941e-01, 5.04950941e-01, 8.79968181e-02, 5.04950941e-01,
          3.08581274e-02, 3.83793004e-03, 1.27930986e-03, 2.99130678e-01,
          4.12305653e-01, 1.28567427e-01, 5.08543663e-03, 2.16335226e-02,
          4.12305653e-01, 4.12305653e-01, 4.12305653e-01, 3.58995944e-01,
          4.12305653e-01, 4.46982473e-01, 0., 0., 0., 4.46982473e-01,
          3.70112717e-01, 4.46982473e-01, 2.43676633e-01, 4.46982473e-01,
          5.75688422e-01, 0., 0., 0., 5.75688422e-01, 0., 0., 0.,
          5.75688422e-01, 4.79207933e-01, 2.80464947e-01, 4.50957835e-01,
          1.00928850e-01, 5.60323477e-01, 0., 0., 0., 3.98235917e-01, 0.,
